10993 32
6939 -2.6901402 -0.32773224 2.1206052 -7.309444 -4.438067 -8.276712 2.216578 -5.0568185 8.71564 -3.4494147 9.6689825 7.942659 2.831803 -2.0159223 6.967886 0.6564525 1.8875424 3.285081 -3.7527092 -3.5846183 1.9650733 -10.648225 7.923022 -3.7027452 -4.557357 2.2422373 -2.001396 -1.17228 3.153774 5.7612295 6.2182975 -0.5026692
9002 -2.3123636 -3.8251007 -1.2836832 -2.7589011 3.0460117 0.96473414 1.8450774 5.14532 0.3789147 -2.6440766 1.2156626 3.5369065 2.8581488 -3.795464 6.9355016 -1.3509597 2.0726652 0.78914183 -0.7020384 -0.07780618 -2.6582267 0.50057405 2.1311934 -0.38497764 3.5950656 1.1908281 3.2138746 0.4795028 0.49676415 0.9355324 2.0080261 -0.31037104
6830 -3.1947536 2.9126756 -6.589703 0.18365328 -1.8759636 -1.8368323 -7.091058 9.325452 -0.2997978 -0.86832905 -2.7009218 -1.0652674 -2.13248 5.8102627 2.4881718 0.28156826 2.7536159 -0.6469904 3.6894193 3.2130418 -0.14883089 1.3488401 -0.97572005 0.9109295 7.9302826 1.8478916 0.30723247 -4.417323 2.6600559 0.6360358 -5.0297275 0.26948324
7545 -1.0366107 -1.9678797 3.3248134 1.6262612 1.9379543 0.14488906 0.5766908 2.5282218 3.4078538 -2.8406687 1.6974298 0.49285564 0.69166064 1.2900125 4.3484063 1.8495365 -2.6733465 5.576121 -0.5279227 1.0240773 -0.98046577 1.9223667 -0.45629945 0.99972 1.0386255 -3.1356978 0.8284988 -1.2567186 1.0283598 3.0073369 0.66279763 1.5234864
286 -1.3701292 3.4507666 0.106222995 -1.6473916 2.8558576 2.2606301 -3.3546147 0.83708453 2.8334403 -4.155111 1.5399343 -0.58923393 5.2433105 2.975658 4.9015613 -1.2952887 8.658146 -1.5016772 -2.2150981 2.9357958 -0.6833476 -2.7617342 4.9199476 -3.5474553 3.8570676 -1.7021432 -4.9214025 -5.178729 -1.603855 -4.809914 1.3293201 2.9821947
4766 3.4759188 0.33858177 0.17076322 -4.421177 2.2336614 1.6939741 -1.3919669 0.0880785 -1.1838405 0.84996146 -0.3420469 -0.18579778 0.7710741 3.3759484 -0.03792906 -1.3355608 -5.8573666 3.9317865 -1.9221979 1.0580156 -6.3397546 1.5091649 -0.14561218 2.4266775 -4.365955 5.599961 0.9419636 2.7028637 5.8288794 1.5336691 -1.2315639 0.7155742
23520 -4.8691716 3.0124483 2.1381633 2.0271714 -2.3430645 3.8340046 2.428572 4.963085 -3.1577804 -1.1092342 -1.447051 0.57917404 -1.3174028 2.3846648 2.0098324 -3.0806541 5.707955 0.86308986 1.2275192 2.0285444 2.4296691 -3.3300478 1.2598933 0.6773285 4.937426 1.9227736 -1.9893403 -1.6509621 -4.6232343 1.7110124 -3.4671104 2.9557817
57463 0.62684643 2.015142 0.882905 -1.4976164 0.43002024 4.316186 -1.1897244 3.265909 -4.9381604 -2.9562395 -0.09239319 -2.3130755 0.48123604 2.9476168 -0.92690766 -3.4146261 0.7542274 2.4744637 1.3528082 2.6357424 -1.2830445 -0.7052169 -1.2667545 -0.7074734 -0.9580163 1.7698689 -0.31040353 -2.7526457 -1.578224 1.4884031 -3.8862302 0.37757325
6663 -1.4592029 4.1043324 1.1937727 0.49511066 0.621601 5.6075144 -0.79811925 0.7214081 -0.41992748 -1.6602865 3.2535272 0.47655264 0.38014853 3.5093863 -0.41608274 -3.700305 1.4467766 2.7788637 -0.92138064 3.2385714 1.3379407 1.3847035 -1.7893769 0.046004634 1.2954509 -1.2209843 0.8430492 -0.6726385 0.28419477 0.43910608 -1.3116525 0.39896265
31133 0.55609876 0.0010332797 0.31319693 -5.204642 4.749523 1.3334903 -2.0200577 3.4202087 1.4100907 -3.220518 -0.7778573 -1.0385687 2.0647027 -2.6445801 0.025322374 3.954298 -8.801663 2.9192305 0.28582332 1.0175097 -1.3166296 3.2585154 4.121528 3.479917 1.5051959 3.7189634 3.5954208 2.3067281 6.675705 4.2391834 0.5219525 -0.7543553
8928 2.6593518 5.1823344 2.685946 0.5735817 3.3769653 -2.6032393 3.2709584 -0.42714205 -3.0105793 1.8441893 -4.7191486 0.14682493 0.28250483 1.713917 -0.44081157 2.4901042 1.0051196 1.4653093 1.4257715 0.68236434 -0.90743786 -6.246412 -1.4972246 -5.556526 7.020748 1.9212483 3.683552 0.93937755 -1.0778702 1.0233407 -0.14883602 5.6005955
8218 -1.8157021 4.580255 -1.7015404 2.0995634 -3.3851364 -0.022226807 2.0365095 -0.28027958 -2.8741968 -5.0306396 -2.4482143 0.9177445 1.5005981 6.4763975 2.7065034 -3.209932 -3.7720945 3.5461266 2.0662518 -1.2768987 -0.974984 1.7243043 1.2187959 1.8915707 0.18015932 3.658903 0.50767004 -0.98798615 -3.4662185 -2.3468285 -1.2401578 3.491766
8400 -0.90766865 0.29951075 1.925476 -3.2661045 1.189912 0.58994985 0.28234673 1.9260129 -2.5284002 0.05641369 -2.853591 -1.5138273 0.8299981 1.3498462 1.196415 2.3328192 -2.452192 2.3863766 1.6758636 2.2840507 0.8948061 -3.230465 0.8507816 -1.775443 1.6240668 2.2372775 -0.50851476 1.0936714 -2.6904473 3.0958154 -2.0738912 1.2883841
20764 -1.259102 0.84282774 -0.1527483 0.94031763 4.0798173 4.4145565 3.3081286 3.4348783 1.0359203 -0.7710345 -1.1093276 3.3444464 3.6664126 -1.5649074 0.31178215 -2.6864622 -6.381449 2.2067096 -6.6193585 -4.1366014 -7.726829 5.538492 -1.8432353 -1.1852071 -2.317118 -0.78984743 7.647675 4.1356 -0.14392704 -1.7600377 2.2854528 4.6780705
9049 -1.0619081 -0.24849495 -0.096896306 -2.416116 0.29191217 1.9431039 0.034024976 2.6140687 -0.8781238 -1.0899053 0.67981076 -1.0013168 -0.31245235 0.96602833 1.8122512 -0.47265598 -0.30881613 3.1071079 0.5522855 1.3470793 -0.5726212 -1.6620643 -1.0742935 -0.72414076 -0.006043194 1.8025967 0.7769834 -0.98078996 -0.6977883 2.679343 -2.3444834 -0.3289339
34984 -1.4483713 2.108459 -0.7037407 -1.6313863 1.5942284 -0.13308316 -0.23751558 2.5848086 -2.9481032 0.3375656 -0.5434416 -0.9128857 1.4264233 2.325581 2.3523664 -0.60837364 3.9683032 0.71993643 0.36973667 1.2076406 1.140669 -3.79016 2.1536458 -3.3904116 2.7554007 3.1853688 -2.3655555 -2.461863 -0.928211 2.6297507 -2.1529148 2.2717829
23563 0.12562397 1.4831744 -0.8825465 -1.6031749 2.3476284 2.123827 -1.7982908e-05 0.17494659 -0.41705883 0.18392299 1.0908302 -0.15187858 1.523069 3.2445805 1.4152182 -1.0336269 0.46116972 2.5786119 0.20436107 0.80275023 -1.5381355 -0.61322045 0.56492347 -1.8712163 0.21419781 2.9119716 0.16445784 -0.12901291 1.9153032 2.603173 -2.2012134 -0.2669383
7738 2.4700172 -0.062703334 1.1781754 -3.4907048 1.2644882 3.7627988 -1.7195961 1.5554413 0.250069 -2.5259378 2.6107166 -4.097148 0.82967216 4.510067 -1.8427098 1.0788497 1.5413826 5.51523 0.93097216 2.426866 -7.2446775 -1.7308879 -2.2086508 1.9244806 0.25246224 -1.9852946 -3.6159186 -1.2648998 -1.8266006 -4.765078 -5.2064223 -0.8990776
29049 0.5995007 1.4278586 2.1373725 -0.65079606 3.2372968 3.6810808 -2.2689779 4.3941402 -5.721845 -3.9184039 -2.6541502 -2.5744452 -0.22178201 2.6271222 0.6579445 -4.2874837 3.0465696 2.7955046 1.5294753 3.2207632 -1.1486033 -1.9222986 0.96505284 -0.10940201 -0.59538215 1.086059 -0.38782 -3.801335 -2.0974526 0.39687845 -4.0665293 0.49496055
5588 -3.847551 2.2101119 2.499846 0.8225421 1.9160875 1.2020383 0.3867499 2.9678175 -1.3871357 0.09496446 -1.3868953 -1.4791545 1.9351054 2.611268 0.77782005 -6.233598 2.8709464 -1.0688388 -3.242653 -0.14388338 -3.353472 -2.7344651 -1.2404532 -1.5137372 1.9876457 -0.27123532 -0.91643584 2.2911053 3.2204726 -2.045526 -0.015056026 0.33461252
4826 0.52825755 4.686374 -2.0471878 -4.260412 3.4466522 1.9376476 -3.3842776 2.4654918 -0.5484852 -3.938527 2.2072237 -1.726674 -1.7666178 1.9657958 -3.5550182 2.919793 -6.617798 3.0680993 -0.15759203 1.3632394 -0.19112946 4.369894 -2.1807823 0.7672796 -5.1372886 0.22942278 5.00317 -1.0196898 1.4155039 1.2346808 0.9396287 3.7428246
22773 -0.1557061 0.51160866 0.4941794 -1.3364238 1.0839286 1.7666057 0.4327177 1.5950774 -0.25804457 -0.77342266 0.14386241 -0.3702453 0.36176017 0.2364417 -0.5849059 0.73832643 -2.1591456 3.1293643 -0.6182467 0.18940134 -1.3642491 0.5178249 -0.93931025 0.16792384 -1.5883179 0.81088597 0.9311491 0.4568843 1.6800678 0.9283559 -0.25308123 1.1389104
8048 -2.2397757 0.467506 0.063459314 -1.8128774 -0.22843368 0.35463428 -1.5138819 3.1454754 -0.43500274 -0.9258135 0.30014172 1.0497746 -0.23834775 1.7066327 1.8012253 -0.108621694 1.2962595 1.2983003 0.06567822 -0.7117628 0.12823029 -0.44053888 -0.107566476 0.5270428 1.0094589 0.5593125 1.099672 0.23636042 0.7130112 2.478865 -1.5852541 0.007960867
12310 -0.6484481 -0.033091526 -0.60389435 -0.45674387 1.2948755 1.4470907 -0.31754732 3.0824227 -1.917614 -0.30789176 0.384271 -1.4362822 -0.541916 2.3059487 1.5070494 -0.48492494 1.9507457 3.348626 -0.22089636 2.527051 0.60562414 -1.5841595 0.3948191 -1.9277558 0.4889301 1.5768882 -1.7134421 -0.51080674 -1.3302163 1.9603446 -2.2678099 0.98993635
16735 -0.80831015 3.507419 0.9975579 -4.5549097 3.5539134 7.4793653 3.1541982 -3.4222538 0.9025731 -0.6663888 0.43382 -2.0610228 3.1535435 -2.819457 -2.849231 2.536401 -5.4402137 5.622106 -1.4347361 3.0542383 0.9768964 1.3450221 -0.8170111 0.5730172 -3.4186225 3.8350077 -2.2819746 -1.9318364 3.7529936 0.9796315 2.9860904 3.2764156
8167 0.6059701 -1.1260238 1.554053 -2.4948475 1.8792311 1.3281965 -2.0340595 0.06655145 1.4347447 -1.69899 3.576005 -2.1422927 2.229116 2.7670817 0.8308686 2.0582802 3.625866 3.5093136 0.40357858 2.9267886 -5.2727237 -3.4980557 0.509109 1.9498858 3.4604146 -2.0704086 -4.211088 -2.3932695 -3.7527885 -3.915601 -3.6251326 0.1731571
15924 -0.76167756 3.7710297 0.9899654 0.63328874 4.2352877 -1.1049399 1.8242948 2.5631027 0.23845994 1.6768022 0.19328912 -0.10933887 -0.59564453 2.330128 3.1752899 0.8937959 -0.2658758 0.97929907 -3.0476472 -0.2665729 -0.13062641 -0.7021735 -4.2852798 -4.6343613 2.672011 1.6901251 1.9818945 -0.45639604 0.54610336 -0.36713865 -0.0012827517 4.139282
9009 -0.29842022 0.6465101 -1.0598335 -0.969729 2.5702357 -0.05754162 -3.5810711 2.2424529 -0.76136696 -1.2143791 -0.1086115 -0.077343516 0.17757271 2.4461868 3.2334511 1.495764 2.4549994 -0.38014752 0.22706342 4.3935184 -0.09034411 -0.7554538 0.21414335 -1.874264 -1.6639698 3.701248 -0.82433206 0.939272 -1.0286956 -1.6802069 -2.3986917 -0.56719315
10026 -0.46665928 -0.15159433 1.7737942 -3.0436027 2.3678827 1.7411448 -0.26825213 2.684546 -1.353209 -0.39341807 0.6216245 -2.5326493 2.9218514 1.8014756 -1.5581095 0.6513586 -8.708933 3.702894 -4.52624 -2.328193 -2.912321 -1.3677769 -5.3936486 1.364097 -1.5578381 -0.69756407 0.104047395 3.8942358 2.179895 -0.14045763 2.136191 1.4867929
8551 -0.4340281 0.6799395 0.21050274 -1.476263 1.0510322 2.0971608 0.32284653 1.9468479 -1.0141673 -0.7864179 -0.16652039 -0.72372717 0.18676355 0.8756188 -0.24316913 0.7611235 -1.040809 2.7595365 -0.26623794 0.49015826 -0.8684535 0.16049543 -1.4160825 -0.33847448 -0.8781992 1.2537193 0.6422451 0.26482654 0.8993136 1.321019 -1.2591339 1.1398118
13188 -1.1373656 0.0399178 -0.20138407 -2.0163734 1.5083649 1.8519181 0.39478397 2.4983716 -1.5052491 -1.2081709 0.9658022 0.15283558 0.7467518 1.9039063 1.9377342 -0.3641351 0.22238028 2.9718616 0.38400874 0.8264755 -0.6683862 -0.8100146 -1.2580464 -0.7329969 0.4518001 2.042415 0.12639596 0.3236729 -0.20691909 2.0719726 -2.1033607 1.1701052
8220 -2.2431161 3.1686475 0.5071661 -0.750556 1.3719976 0.042692475 -3.003499 1.1563174 -0.45677143 1.2472504 1.6667402 2.8433936 2.2228467 1.4574728 -0.53846467 -0.9094603 1.0910301 -1.895579 2.563275 3.4428208 -2.051653 -1.4948753 -0.72301024 -3.7906208 1.8255765 1.1323289 0.68008703 0.26499724 -0.5596052 0.18529718 -3.0551794 4.154545
12880 0.37364727 1.3902594 0.67474574 -0.8400902 0.58491534 2.4061623 -1.93717 3.0750585 -5.403282 -2.6507385 -1.9646903 -2.5535083 0.259872 2.4408472 0.11951599 -3.6367893 2.2705853 0.35876122 1.4226388 2.284233 -1.4487846 -1.7749634 0.6066775 -0.58742833 -0.3486925 1.5921534 -1.1030331 -3.3060172 -2.084385 0.2956809 -3.1943681 0.48441815
33891 0.6678342 -0.110935114 -1.9634185 2.1134114 4.5166497 -2.082259 1.2501568 3.4956057 -2.252913 -1.1687084 -2.465127 -1.5293248 -0.15364414 3.9070096 2.4992998 -2.012835 1.2932179 0.11843723 -1.6186982 2.2616243 -2.3481312 4.8620553 -4.359604 -1.8039597 4.397175 -1.8878218 1.1347214 -0.06757707 -1.5465468 0.93752795 -4.7525206 1.7072885
13004 0.8284777 4.2069345 5.028027 -0.9471876 4.250928 -0.33232817 0.08324579 2.1402094 -3.84593 2.1432347 -3.4487066 -1.3711686 1.2497413 3.2377858 -0.8554611 0.683449 -0.85769373 -0.55266875 -0.8902397 2.1440547 4.161517 -3.286038 1.017069 -3.9958029 3.0980127 2.1820312 -0.087463 1.2538221 -1.5310525 1.9832964 -0.40196997 4.2494564
1764 -2.037174 2.860571 -2.3246775 2.196451 -0.9245766 -0.9718025 0.8883647 0.66893786 -1.7437215 -0.8553167 1.2715701 0.6131903 1.8747231 7.0247626 1.988901 -2.3679469 -0.15498377 1.7901287 -0.48027542 0.096625276 1.0274972 1.3685029 -0.9786858 -2.1868024 1.5770994 2.51677 -0.46968508 -0.323714 -3.7161026 1.2606301 -1.9539089 2.8702195
52320 2.022158 2.620806 3.875507 0.49257416 0.099873535 0.50353813 0.24921219 7.1051574 -0.4719859 -5.0728736 -0.7142475 1.2569834 -2.825413 0.55716705 -3.6093073 2.3411386 -4.8157606 6.4479737 1.5087049 0.13350245 -1.6548263 -0.30660066 -1.4371388 -0.098822646 -5.5924597 -0.20806244 4.6322384 1.2017852 5.2922144 2.2497947 0.20046623 2.6053336
38193 -1.2739539 0.8721678 -0.05251133 -1.5589312 1.1747074 2.644614 0.2737664 3.7116578 -1.4406699 -1.2690225 0.5429332 -0.83077246 0.077621944 1.8125248 1.371892 -0.49042633 0.33439627 3.790878 -0.3119405 1.6440836 -1.5487142 0.4120283 -1.4195303 -0.8059845 0.68151844 1.5967153 0.6441999 -0.29555583 -0.81766456 2.191755 -2.4271898 1.9637499
13237 3.0343394 1.8961037 -1.8910434 -0.8094564 1.8802463 -0.060966205 -3.4083173 0.23960496 -0.43878937 -0.53082806 -2.455535 2.975628 -0.043376025 3.1092777 1.1532562 -1.3053187 2.2832675 -0.3748621 -3.1252818 1.8378284 -1.3220903 -1.1881379 -1.1477844 -6.256082 0.84532255 -1.040241 0.70334464 -1.0452356 -0.16086246 -0.94290614 -5.5212555 2.883212
23106 0.8716398 1.8986528 3.0879107 2.8859134 -0.1816881 0.3358726 -1.1680142 7.987655 -1.0941178 -3.0637522 0.06695315 2.8237379 -3.1122897 2.918619 -0.37513602 0.05531649 -2.2382386 3.6916773 2.4884043 -0.6567521 -0.8439068 -1.247018 0.6351382 -1.2038263 -1.8124167 -0.15202224 2.513029 0.48500597 0.8103918 2.2667596 -2.905986 0.21017744
50607 -4.7263284 2.9471018 -3.7982953 -1.777124 -6.463775 5.469953 1.6114709 9.849109 0.98906505 -2.2420328 -1.775542 1.3815325 -1.2360138 -0.41762182 -1.021402 2.6869829 0.86798304 -2.4976306 3.0471303 -0.4513392 -2.6520061 -1.8631545 0.78218335 0.59836096 4.541762 4.035648 -1.9445267 -0.28726596 -2.0147097 0.031261988 -2.0614488 4.9744396
3255 -5.445627 -2.6197662 1.3879206 -3.3060071 -0.92714936 3.1780908 0.35451508 5.0066633 2.5307944 -1.3231795 0.53757674 1.9102653 0.20051068 -2.7221973 4.5849586 2.455135 0.097706415 3.376992 -3.250954 2.3686886 1.5652868 -1.4586594 -0.31469277 2.1285686 -1.1398548 -1.1524981 2.208522 1.4814125 -1.1798271 1.0460861 4.2518353 2.627322
53062 -0.67012066 0.02001449 0.46545961 -1.4419292 0.38869348 0.63535845 -0.6757747 0.893308 -1.0755544 -1.1296443 0.8744429 -1.5746801 1.7026327 2.199408 1.8369054 -0.63030785 2.5896323 1.630087 -0.7880564 1.8572938 -1.262205 -1.0959929 0.0904684 -1.0442404 1.6602231 -0.40189695 -2.3748207 -1.6638731 -2.161158 0.03245509 -2.2958536 0.34003887
20115 -0.3433801 0.4655486 0.4042147 -1.5213461 1.392213 2.3130288 0.49467432 1.9704634 -0.75680095 -0.6844687 0.06016157 -0.7039588 0.3174406 0.69911045 -0.18552676 0.6122502 -2.0813563 3.2123692 -0.68706495 0.19663952 -1.4581339 0.54826236 -1.6217632 0.052435853 -1.1186876 1.0406996 1.1624658 0.63841504 1.1605465 1.1178793 -0.93118113 1.2877647
57344 -1.7135997 0.042889025 -0.2941718 -1.0701746 -0.015063611 4.276709 -0.0883208 3.9464571 -0.15457864 -1.9941493 3.1504571 0.7606242 -0.5538282 0.15858021 2.4369879 -2.7761717 1.5548172 3.9754648 0.69564587 3.1818469 0.46726903 0.6999306 -1.2956501 0.19729595 0.7852151 -0.094145484 2.3194773 -1.6498921 -0.561149 2.3392456 -1.5388354 -1.1567534
17676 -1.2814168 2.9006758 2.3363578 -3.200163 -0.7957538 3.2329688 0.96796155 0.28377792 1.8880637 -1.6182123 0.93823665 -0.47868776 1.5402193 1.9198498 -4.605444 3.3654816 -3.808755 4.5593762 -2.4943495 -0.22866775 -1.5962344 1.826744 -3.1383283 1.0098838 -5.017477 0.7495348 0.70724213 3.1006582 1.5762749 0.2224983 -0.45266208 3.7086053
15772 -1.5124651 1.4024998 -2.8056247 -3.236941 3.787132 1.8114508 -3.0191789 2.3115182 -1.9206314 -1.9354404 1.7765337 1.4915204 3.2702236 1.3220556 0.29899058 -0.99328357 2.5500093 -0.28683797 -1.6210831 -1.0718718 -1.7772073 -1.0878044 0.104783475 -1.5646613 0.35482198 2.5778058 1.9903638 -0.06240121 1.1192236 -1.7461132 0.035053693 0.42359003
41798 -1.8186525 0.77184045 -1.5650058 -3.1641555 1.4306934 1.4733795 0.39761987 3.9036627 1.8917137 -0.47521538 4.2034717 -0.059662785 1.9019943 0.5925106 1.8409327 -0.65387696 -3.5477688 1.9793686 -0.8588152 0.2908248 0.561104 -1.171025 0.4297259 -1.70263 0.3735486 1.926436 4.5680995 1.853038 2.0437105 4.521355 3.2130115 -2.799377
50673 -1.8757863 -3.070147 0.962891 -0.56267333 2.6277955 -0.0102086365 1.7446461 5.323441 -1.2196991 -1.1654564 -1.3246787 -0.69861186 -1.5588472 -0.5400145 3.6190164 -1.7036935 0.9626998 3.870039 -2.123123 1.911522 -3.0272129 2.4878023 -2.9359415 -1.9793668 3.163316 -1.0188888 -0.27514687 -1.6969081 -2.0219326 1.8311089 -3.9459703 0.8560904
28917 1.6705176 -0.061088458 -0.20694394 -2.417665 5.5973663 2.9763322 1.6330869 0.24841738 -0.566662 -4.3582315 -0.12027352 3.811333 5.422302 0.05452367 -1.10688 2.8719566 -3.2361596 3.6718626 0.7559841 -1.9917321 -3.6197822 3.044871 -3.295298 1.128721 -2.7553186 2.8074553 1.8392626 3.2606866 5.4079065 -0.52567506 2.2194524 3.332691
9116 -1.2615575 0.86102736 0.51442707 -1.5489246 1.4339155 2.289034 0.10683809 3.0369494 -1.2937249 -1.1733998 0.45231545 -0.812836 0.4414511 2.3633184 1.6799765 -0.6163852 0.056382276 3.3958325 -0.7598559 1.4404492 -1.0956804 -0.6710014 -1.4113576 -1.03927 0.6360297 1.3340148 -0.03329233 -0.38334137 -0.7271591 1.9035081 -2.8028784 1.4011836
1136 -1.353036 4.750668 -0.2696123 -1.0727834 2.6188529 6.3362017 -1.5479308 0.7551029 -0.024530645 -0.7175162 -1.333828 -0.81547457 2.7043118 2.680377 -0.9872979 0.6497362 0.1808501 0.66363543 -2.738438 0.48778132 -1.7141932 1.7665659 0.0525945 -1.074026 -1.2778168 0.474325 1.1103947 1.3758667 3.21375 -2.84411 2.056304 4.37245
8151 -0.8698663 0.7479135 0.034430593 -1.456583 1.3181977 2.5973105 0.39780292 2.2715619 -1.4570047 -0.011565868 -0.12809367 -0.88811743 -0.04562647 0.9108394 -0.12590301 0.5408928 -0.9093072 2.8036454 -0.4260067 0.22768252 -0.86156017 0.5035097 -1.5592825 -0.12784956 -0.71851104 1.2635156 0.98635566 0.61963326 0.80690247 0.9550153 -1.1857235 1.4476501
3223 -0.12261342 2.6147103 1.4617583 -1.1666809 1.851442 -1.340074 1.9203634 3.0248697 0.12453743 2.0017147 1.4419374 0.12764104 1.691314 2.417705 4.147375 1.2688953 0.5629881 -0.80253446 0.4505143 -0.04319073 2.6894362 1.3615402 -0.39587826 -2.6419327 2.3126743 2.4518719 0.12803651 0.0034947107 -0.44022116 -0.23205096 -1.9783361 0.1730358
7713 -0.509535 0.83588016 1.3570914 -0.48333356 2.8779795 1.8992758 -1.1110523 2.6091483 -2.2868414 -1.8905902 -1.2530272 -0.9654558 -0.05511348 1.8168691 1.6190277 -1.7726916 1.5536457 2.5943873 -0.056970872 1.7587469 0.049907755 -1.2436736 0.35893598 -0.53568625 0.37041646 0.65007305 0.10191689 -1.4674561 -0.83268344 1.2836788 -2.4314923 0.8808441
17974 -0.26805043 0.5589075 1.202263 -0.25459272 2.3554533 1.3005618 -0.95153034 1.8821058 -1.6997409 -1.5981112 -1.1234858 -0.6844043 -0.15614122 1.1462895 1.2152662 -1.4167701 1.361998 1.824604 0.045267638 1.3359987 0.13366544 -0.99173915 0.5254499 -0.27824295 0.1924391 0.31599456 0.121663846 -1.2780129 -0.5765433 0.82603896 -1.6628066 0.53752583
29278 0.052922875 -0.019680727 -2.4298062 1.1565596 0.22757785 5.0082335 -1.7328564 0.8431459 -2.4538608 -1.5195893 -1.5791695 -0.6957628 2.0787036 1.4823816 0.9102983 -1.2000071 0.592403 1.6592612 -1.7553293 -1.3421736 -2.2156713 -2.7787933 0.08093374 -0.19658336 4.6430016 0.8019218 1.5306147 1.446388 -0.29336634 1.9777502 -6.129089 2.2538142
4651 -0.5419782 -0.80520326 1.6853669 -2.4014285 0.7597844 1.5186262 1.554075 2.2487044 0.11973054 -1.1670253 0.5269259 -1.3573853 0.91825765 0.1284169 -0.6343689 2.362972 -4.4243264 3.8096807 -1.371329 -0.37237138 -2.1179602 0.7185546 -2.8093777 0.15376957 -0.55671984 -0.12687707 1.9252061 1.2412784 2.3989847 0.30385938 -0.5623051 0.43013495
30036 -0.590953 0.4004367 0.35616305 -1.2711362 1.4767114 2.4756172 0.54384786 2.4584813 -1.199158 -0.59358877 -0.1232415 -0.8854061 0.2852523 1.0386664 0.22938319 0.29500458 -1.6886283 3.41946 -0.5369902 0.39464188 -1.488653 0.5238804 -1.6726323 -0.06803973 -0.553349 1.2127855 1.0309374 0.48036575 0.7135349 1.412051 -1.5653512 1.3670903
39184 -1.3531115 0.783791 0.19723797 -1.0140337 1.0600935 2.9658515 -0.86395264 2.0698426 -1.4191947 -0.8754803 1.2733421 -0.86052376 -0.27507377 2.21344 1.0018221 -1.4695297 0.852844 3.5026686 -0.27302772 1.9688747 0.6019454 -0.053415924 -1.5380111 -0.26602456 0.1866773 0.7087094 0.44434083 -0.60359365 -0.24975695 2.3700998 -2.6926458 0.41139472
8447 -0.2531361 3.7191515 0.6403147 -0.44173834 2.401969 -0.51179326 -0.3320309 0.6427487 -0.5578117 -1.2466309 -0.79354244 -0.54995763 0.17449312 5.0263352 -1.138288 2.465804 0.621773 -0.7610442 -2.5534558 -3.0382128 0.35740855 -0.87959236 -1.3715189 -3.039764 -0.40412465 1.5756185 1.1013852 -1.7316418 1.775923 1.6739172 -1.6886322 1.5774268
24785 0.83965546 2.0296583 0.1723439 -2.8520129 3.745659 5.480935 -1.5234709 1.9995666 1.043103 -1.1261098 -0.34802485 -1.6818119 1.5697111 1.0425969 -1.4453466 1.1580367 -1.1109542 2.651409 -2.6920214 0.6340304 -5.896557 2.978043 -2.2388813 -0.2557127 -1.869383 -1.8205976 1.2143031 0.7255196 4.12514 -4.891596 0.17093027 2.5983553
25933 -1.2189867 2.379961 3.5971184 -0.33093628 3.0777423 0.03451722 -2.166184 -1.8874995 -1.5497732 -1.3504508 2.0964215 -3.9457586 -0.44932458 4.354953 0.42245382 0.48232663 3.1736233 1.9492506 0.57542783 3.0937884 -1.1746395 -2.5755932 -1.2989062 1.1739184 4.653141 1.1193918 -2.5549734 -2.4444401 -3.6245232 -0.061620597 -2.991696 1.3001375
2764 -0.17636676 -1.4686555 2.4002612 -0.5854501 1.3053563 0.88011056 1.2324061 2.2244217 2.8049178 -3.3406 0.5425809 0.44564363 -0.1126747 -0.46420598 1.7478348 2.3340118 -4.5616503 4.381074 -1.3472998 -0.090372264 -1.2338932 2.6894393 -2.1733487 1.6732007 -0.7115274 -1.7945877 2.6463275 -0.17709517 1.6381084 2.3372362 0.4292191 1.5141578
38091 1.7936859 1.900552 -0.5172716 -0.74926597 3.2947793 2.1983109 -2.7363918 -0.6541558 -2.5915496 1.252022 -0.37824634 0.38964498 3.7561955 3.7136095 1.1630263 -1.890352 -2.8398356 0.832198 -1.7803605 1.7676404 -1.5727414 -1.3934582 1.4338369 -1.7624507 -1.3240465 2.557019 -0.7488879 1.3515172 1.8256886 1.2195446 -2.4548123 1.4551964
46887 -0.3782628 0.8384558 0.59256005 -1.0240306 0.92433953 1.4583699 0.38503155 0.9348217 0.11196175 -0.61519676 0.16459963 0.11231405 0.65080184 0.09949418 -0.4014749 0.92613584 -1.5802099 2.555539 -0.7102483 -0.1068165 -0.84627664 0.36956695 -0.340788 0.01232647 -1.6091202 0.5278968 0.510418 0.6053423 1.6455384 0.5370636 0.33047128 1.4969283
21826 -1.5172963 1.8765283 0.3535664 -1.4356347 0.6061985 1.8829473 0.12127461 2.5628855 -0.32744697 -1.3709549 -0.10192619 0.3163649 0.08408288 1.1929162 0.71867317 0.3923086 -0.08032129 1.9957262 -0.08719262 -0.39414775 -0.4729834 -0.47890356 0.5181828 -0.6139476 -0.5074451 0.21335301 0.6880684 0.2905325 0.78602695 0.75659245 -0.5079636 1.7098745
47796 -2.2359087 1.6694316 0.50470644 -2.736321 2.526406 4.091902 0.051181875 5.197248 -2.9898596 -1.6645105 0.33087352 -1.6472235 0.98584646 4.509337 2.7692387 -1.0754094 0.0870382 5.665168 -1.2380737 2.126161 -1.9109632 -1.174396 -2.3267543 -1.893319 1.2913156 2.6553094 -0.08074557 -0.32571074 -1.2186502 3.515915 -5.0738134 2.8212984
24724 0.9192791 0.10655197 2.4817576 -1.1422871 -1.3616445 3.6278338 -0.66211814 4.743372 -1.8027806 -0.94761443 0.35740957 -1.1742284 -0.0051762545 2.2321517 -0.26613727 -1.9056686 2.4518387 -1.1892823 0.38366684 2.7644026 -2.6112533 2.3289945 1.1832758 -2.7539763 -0.06438818 0.71952915 0.95549726 -1.5228944 -1.5904328 0.8991381 -0.009828594 1.1463538
31042 -1.9144378 1.3771739 1.690617 -1.4205317 2.079324 -1.0413176 0.37018594 -0.78815496 0.18741302 -0.49212143 -0.5683224 0.08983846 1.0515237 1.1567954 1.4646002 3.9608867 0.42544985 1.622433 -2.2332606 -0.8172043 0.7469882 -2.179267 -0.4030059 -0.8881242 1.1997144 1.3330595 -2.0978167 1.8903526 1.0248102 2.8928888 -0.28017965 3.2546415
10036 0.2866447 1.3383216 -1.0501318 -2.1510894 1.1073722 1.5973735 -0.35891673 -0.42402393 0.28718296 -0.11112209 0.6024062 0.5557273 1.5141401 2.4517663 0.3411119 -0.46930057 -0.5680156 1.083977 -0.9216712 -0.4820755 -2.5753858 -0.49913332 -0.02727265 -1.0013161 -0.141201 2.5036123 0.72241604 0.65431714 2.2785645 1.4484276 -0.29611793 0.047753032
4657 0.46573445 0.94674003 1.0399654 -2.0583131 1.698119 1.9645494 0.6154643 0.36988312 0.2246314 -1.1325623 -0.68798906 -0.49704835 1.1635667 0.49616793 -2.4364128 2.5340059 -3.42805 3.8136392 -2.0000026 -1.3705814 -1.3329386 0.018235514 -1.9478954 0.26266897 -2.0482647 1.3475703 0.6101053 2.1032984 2.9981058 0.71453804 0.12299194 2.0747392
38861 -0.7290089 0.79164416 0.34752488 -1.586931 1.6135501 2.850289 0.36586037 2.8848307 -1.6387116 -0.71649474 -0.010676222 -1.1954728 0.43053922 1.9070785 0.3544086 0.112174384 -1.6926413 3.888095 -0.7397849 0.7333785 -1.6659253 0.2500089 -2.0153186 -0.40590003 -0.46094146 1.5550275 0.77584535 0.46067446 0.5815639 1.7499499 -2.3093467 1.5799257
9824 -1.7757058 -1.2502755 3.2406776 0.55452275 1.0710359 0.77649814 -0.033936493 3.568406 -1.5710472 -1.7799195 -1.2497642 -0.5826423 2.0173094 0.13047662 1.4949031 -0.74632233 -1.9294013 3.4612653 -3.2499554 -0.34034476 -2.2516105 -1.3897883 -2.883098 0.80601746 -1.033271 -1.627558 -2.6770782 1.6000376 -2.0444548 -1.1713924 -1.5169005 2.7107654
11139 -1.1235775 0.6335186 -0.90346515 -0.85660785 0.5567793 0.5036873 -1.5847888 2.423317 -1.2907073 -0.35511854 -0.18593831 -0.7773892 -0.08481127 2.7639349 1.592384 -0.7023601 1.2842834 1.2014054 0.25587285 1.3252053 -0.21880987 -0.6744686 -0.75247097 -1.0686296 1.8232918 0.8914932 -0.36305204 -1.1082808 -0.6190927 1.3495142 -2.9515095 0.23965622
131090 -1.9384465 -0.32234454 0.8076578 -0.8219273 0.0740577 0.65343773 0.7048592 2.049086 -0.6451677 0.22662184 0.64019394 -0.76282823 0.61948824 1.0431194 1.7098703 0.41087276 1.0593345 2.4214005 -0.36929867 0.52307177 0.13049711 -1.0590789 -0.19949669 -1.411785 1.1792247 0.30127314 -0.6934397 -0.056084137 -0.36777696 1.1412177 -1.7095985 0.49819502
9957 0.9955901 0.85431576 -1.0325022 -2.4859738 1.380669 1.6098709 -0.20825616 -0.45442316 0.5828225 0.19357245 0.6224345 0.50384337 1.3448013 1.687949 0.10327139 -0.26214278 -1.7002256 1.8175473 -0.457043 -0.3247006 -3.1039076 0.09686193 0.3059584 -0.41928074 -1.1053039 2.6875265 1.1048356 0.5931447 3.539522 1.7960607 0.03478951 -0.41083163
52228 -2.417166 1.9413763 -0.5907207 0.2559454 0.6732343 0.24241525 -1.129425 1.8607043 0.9604843 -2.1993947 1.5958734 1.3635772 0.9263416 1.6255093 1.7111655 -0.33300304 2.0688798 1.4926543 -0.4581874 0.47907665 0.9967119 0.46359742 0.23655222 -0.23600471 2.7419162 0.050856005 0.18397665 -1.1374528 -0.12932071 0.51609284 -0.74387544 0.9839801
41313 -1.3571404 1.5717492 1.8230125 -0.8979452 2.185678 1.260151 -1.675589 0.20162328 -2.1221497 -0.6455903 -0.91179067 -1.9545436 0.316934 4.4106913 0.9397279 1.1609222 0.24125618 1.477284 -1.5350214 0.3114788 2.8845534 -0.7836744 -0.5627771 0.3045246 0.68022895 2.0502236 -3.7191145 -0.6218877 1.0273106 3.1489153 -4.124237 1.7814684
10269 -3.081652 1.1055043 0.012802619 -0.50523067 2.0380201 0.7136981 -1.5955447 0.54075944 -0.74726486 -0.48546 -0.67101276 -0.23051003 1.6255146 3.60384 3.107902 -0.2618082 1.2144377 -0.3658383 1.2628438 0.7837372 1.5876411 -0.9760609 1.6347289 0.14968237 3.0465746 1.8374511 -0.008333857 -1.1727496 -0.174178 3.3067255 -1.802088 1.5525103
2711 -0.1779597 0.6585016 0.47956908 -1.532323 1.2059541 1.9854672 0.5780096 1.3200363 -1.0975244 -0.61107594 -0.46326905 -0.87017137 0.87631714 0.70987374 -0.23778471 0.5707368 -1.2557881 2.8311398 -0.8290581 0.10938266 -1.0017513 -0.19916704 -1.3901883 0.19502689 -0.83714867 1.2993348 0.7311851 0.7487906 1.3435165 1.2624838 -0.89585704 1.7200491
1257 -0.73862994 4.0653477 -1.0091741 0.2942799 1.8467683 2.2755613 -1.0651232 -0.40687552 -0.8319753 -1.5988896 0.24925773 -0.7006149 1.7804532 4.4813557 0.075567916 -1.195576 -0.6536469 -0.43878672 -0.5560625 -1.8627918 0.4787695 -1.4026453 0.31896144 -2.8931048 0.4269871 0.5094799 -1.3235698 -0.24999154 -1.5300951 0.081848614 -0.23384531 1.3197098
53237 -3.023745 2.3054476 -1.5686713 -2.0072062 2.9762836 4.594941 -0.1923709 -0.8463347 -0.19016288 1.1016207 0.20865661 -1.7987071 2.9869058 -0.46486568 -1.071024 -0.711963 -2.0586371 0.70231766 -1.865517 2.0027766 1.7376775 -1.5662861 -0.27485135 0.9827244 2.064334 3.5146577 -3.5316665 -1.2609416 1.7312922 2.1705184 0.039694127 3.1265006
50581 -1.1471298 -0.592074 -2.4335191 -4.3186903 2.6520438 2.7389529 -1.1048267 3.248093 -1.0459412 -0.19671969 2.407935 -0.12883984 2.1536136 -0.6390775 0.94692266 -0.52145356 0.8250394 2.0971258 -1.1396799 -0.82290506 -3.3102412 -0.81447846 -0.62818265 -1.5386412 -1.587554 2.083709 2.5497537 0.115102306 1.9620055 -0.66282284 -0.16136847 -0.315867
1853 -2.3660455 1.5747857 -1.6005108 2.4722323 -1.2419275 0.04900559 -0.39288732 2.2726717 -3.8363378 -0.4368221 0.47621077 -0.5279803 2.1237764 4.9179764 4.316301 0.08523531 1.6574575 1.3055633 0.34568813 -0.11063042 -0.24117205 0.5129303 -0.20289196 -3.729373 0.042029336 2.8703659 -1.4772512 -1.2475055 -0.728405 -0.9875521 -1.9246079 -0.4668609
4739 -0.9925165 -1.4785471 0.9260948 1.1659329 0.046592638 -2.1638405 -0.09931831 0.71508116 2.7965333 -1.9178057 1.1595324 1.330787 1.125736 1.008335 4.635811 0.030906899 1.5264878 0.3658521 -0.72345084 1.0976378 -0.06710452 -1.0088153 0.9875326 -1.1734967 2.9905965 -2.0287325 -0.9244253 -1.7475643 -1.3282568 1.3917152 -0.11309792 -0.067648016
29582 -1.1078019 -0.07882703 0.41175056 -1.1268693 0.8486875 1.8860459 -0.08141034 2.0936995 -1.3475761 -0.32503447 0.46008235 -1.2143943 -0.74516225 1.2954206 1.8587468 -0.2684756 0.37829965 2.7494276 -0.05527355 1.4546548 0.41548246 -1.27648 -1.1392313 -0.22624338 0.7169693 1.4298595 0.12618862 -0.82084537 -0.5626021 2.4328034 -2.8127935 0.3650156
55430 -0.40625307 0.41927373 0.31529093 -1.3377222 1.4628133 2.636244 0.41357931 2.4814155 -1.5289595 -0.39058295 -0.14370967 -1.2880303 0.07558214 1.3332936 -0.09673801 0.29093218 -1.9881148 3.5221303 -0.4902239 0.4551555 -1.5122949 0.58592635 -2.091169 0.07243372 -0.74327904 1.2751917 1.0697857 0.6093182 0.7012414 1.3928682 -1.9061458 1.2212162
7470 -2.3277845 -1.302192 1.7006979 -0.9553542 0.06401081 0.054570775 1.5229839 2.4294615 0.41992152 -0.27102587 0.83026344 -0.7288135 1.4589932 0.09778251 1.7535777 1.7450771 -1.2813718 2.6876633 -1.4287483 0.027909784 -0.7164691 -0.57853025 -0.9524859 -1.1438707 1.4115702 -1.2323436 0.18255422 0.7597203 0.45662597 0.40404895 -0.94083995 0.54499215
28545 -2.2325895 3.0506368 1.519944 -0.91345996 1.5916724 0.9908163 -3.0178561 1.7527205 0.55825895 -3.1513474 -0.6743801 2.4388607 0.82025415 2.2611058 1.392008 -1.8016603 2.988636 -0.8121713 -1.844937 0.10763926 0.52305335 -0.36308828 0.10701983 0.8042423 2.559894 -0.83957994 -0.1664098 -0.8370608 0.49986073 1.70264 -1.8890266 2.293188
263444 -1.3670956 1.5917736 0.31106892 -0.3805924 -2.0172222 -2.4017327 0.6021295 3.157797 -2.6544583 -2.4230103 -1.3319807 0.51320285 -0.21900985 1.217792 0.47815266 -0.3577699 -3.3157287 1.6625879 0.1317272 -1.6479264 0.3361972 -1.8042321 -1.1209797 -1.7016562 -0.6386896 1.7753687 2.150514 2.003985 1.6430521 3.8557026 0.9217355 2.1063821
5578 -2.275553 -0.96025723 0.7301091 -0.17691253 1.8908714 0.68477106 0.40864676 0.6941864 -1.746459 1.5618682 0.8334312 -1.61463 1.9344674 3.2337565 2.366404 -3.3771546 2.5972981 1.5277625 -2.2271698 1.128926 -0.32437128 -2.57324 -1.1498574 -2.2235696 1.3740892 0.777628 -1.6167551 1.7994761 0.25116083 0.16789581 -0.30399856 -0.06321986
41059 1.2401736 2.7217433 1.526633 -0.7276538 3.990117 1.4881443 -0.27336514 -0.37728125 -2.805063 -1.5754944 -2.5590935 -2.5585215 1.5198984 3.8090968 1.0362232 1.010372 -1.9507473 0.24469185 0.8004307 0.28694224 -1.5769776 -1.7704359 -0.9012829 -1.2859726 1.3486083 2.83174 -2.9478261 -2.0121531 0.63557625 -0.14560665 -4.107785 2.0017202
34547 -0.456224 1.6523985 0.527336 -0.6734484 1.5481077 1.1601167 -0.6077132 1.2435743 -1.3562812 -0.8108655 -0.34094554 -1.345049 0.18021083 3.4579706 0.06774511 0.0059739947 0.6220163 1.4448594 -0.9548342 -0.74009275 0.4809728 -0.9273224 -1.3852987 -1.1432772 -0.016832836 1.7576716 -0.44999313 -0.9198719 0.2940404 2.23653 -2.700739 0.9846479
22646 -1.0746584 0.9617682 0.25229946 -1.0831226 1.3751202 2.1280556 -0.0136473505 2.2584348 -1.4518677 -0.6101885 0.13937828 -0.6034471 0.76466936 1.8180442 1.0411541 -0.36991388 -0.3832304 2.700127 -0.5548091 0.8440815 -1.0637337 -0.12497414 -0.96679705 -0.95997137 0.08888876 1.3682876 0.11892131 -0.05721346 -0.08735728 1.4505726 -1.8695647 1.3796962
43754 0.5353319 0.9444243 0.5602246 -0.39569598 0.32164082 1.8458318 -1.6675636 1.9130273 -3.9944246 -1.7230753 -1.4776288 -2.0317636 -0.22571576 2.4060848 0.081103526 -2.7904022 1.1503899 -0.25843263 0.8144579 1.4210435 -0.8487248 -1.283495 -0.11747521 -0.0950915 -0.47557598 0.9743732 -0.8762924 -2.1752458 -1.6140302 0.3917511 -2.8361993 -0.04111204
2381 -1.3484672 0.9314961 2.5843008 0.33081698 0.4332531 4.00074 3.3513463 0.31302047 0.53646815 -2.0474064 -0.18557438 1.7738705 1.4051044 -0.15136483 0.48873886 3.707248 -1.771061 5.20795 -1.526729 -0.88104546 2.1952622 -2.002361 -2.4182339 -1.5063299 -1.710029 1.4161817 1.1231431 0.25572062 3.1392746 4.3594728 0.28499565 0.5714876
25144 -0.8311729 0.34911737 1.280478 -2.6341708 0.5210027 -0.19911379 0.7727336 2.7585146 -2.260323 1.5670305 -2.1364703 -1.2839785 -0.25519973 1.2871956 0.9964838 1.8295295 -0.36988854 2.043664 1.0413736 1.9959712 -0.46244228 -3.0212648 0.12309657 -2.3107193 2.0316474 1.5794085 -0.24307382 1.4888861 -2.8735664 2.4348383 -1.8680314 1.8970033
199974 -1.3199224 0.58338207 -0.9863339 -0.64676285 0.09117819 2.364163 -0.08869021 4.1904435 -1.8834959 -0.72557586 -0.9180792 -1.021068 -1.5757989 1.5494294 1.0831511 0.379551 1.1440752 1.8817279 1.84106 1.484223 -1.5832435 -1.1931498 0.19428709 -0.14828077 2.8338952 1.6144041 -0.1564105 -0.9897172 -2.7007143 1.0500802 -3.55207 1.1848164
35104 -0.61791104 1.0486752 -1.5060353 -3.1704726 1.3208871 1.244236 -0.7897418 1.5278889 1.5585272 0.7429966 3.1639566 -0.51882297 2.2803895 1.7134396 1.2065055 -0.98273367 -2.9969487 0.93832487 -2.8411658 -0.61886495 -1.2339263 -2.2524745 -0.4293559 -1.9126501 -0.40632868 1.6226892 2.731229 1.2604845 1.0114785 2.3685634 2.1098804 -0.89127445
21385 0.5434529 -0.22720753 -0.91560555 0.2975172 2.7792742 0.26994944 1.9606067 2.4222734 -2.6326892 0.059390675 -0.39428985 -1.2906212 -0.56582487 2.3962367 0.43839076 -1.9762372 2.317192 0.032357454 -2.1166892 1.8479244 -1.0352603 1.9392635 -2.3592293 -3.6020553 1.4389988 -0.29518002 -0.62007517 -0.4446633 0.21843573 1.4134338 -2.380516 0.5561789
9198 -0.15680334 0.49416703 0.2825483 -2.0820155 1.3134122 0.8426652 -0.37995794 2.0659742 -0.4999637 -0.6660202 0.83463454 -1.3146944 0.18911417 0.16101635 -0.20659229 0.66280293 -2.3832576 2.700428 0.08754932 0.3601162 0.20641227 -0.39428693 -0.031846877 0.34667102 -0.8492778 2.0505695 1.4338913 0.11475606 1.8607156 2.58717 -0.3005648 -0.7674296
5089 -2.0793943 1.2711029 0.614693 0.24749263 -1.4355999 1.9543546 1.3308846 3.021301 -1.7770121 -0.22861242 -0.6988837 -0.1984413 -0.49192512 1.477392 0.86843383 -1.1220269 1.9893371 0.959876 0.8140786 0.7518902 0.24416617 -1.2159486 -0.009840838 -0.13019186 1.9304007 1.5338087 -1.1356747 -0.5432516 -2.354725 1.0048426 -2.2769172 1.6999469
48858 -1.0416704 -1.3158668 0.25216115 -0.98002005 0.31013006 1.4052614 1.1325884 3.6371171 1.5379015 -2.4386752 0.7941618 2.1330419 -0.64555997 -2.247655 2.733836 -2.073738 -2.4901505 4.2023644 -2.9900947 0.40809405 -3.9788494 1.811217 -1.6985725 0.41208136 -1.8762575 -0.7344777 3.388436 -0.9678492 -0.30817315 0.56615967 0.29116374 2.1086447
39216 -0.8295718 0.933615 0.7209887 0.049511038 1.3708855 2.717003 -0.8730312 1.6950049 -1.3598083 -1.3805397 0.5568736 -0.35357425 -0.40635523 1.5360981 0.9815694 -1.9036189 1.1850313 2.5209389 0.05100665 2.1566415 0.721294 -0.06778525 -0.45973572 0.19269522 0.47080213 0.00244034 0.75975275 -0.9300391 -0.58080673 1.2685833 -1.6678216 0.052778225
60330 -0.035233762 -2.8929572 0.5560196 -4.342953 1.4237039 -1.0870405 -0.73327345 2.8739464 0.3327717 -2.802635 0.52122563 0.58233774 1.9925277 -0.7208888 3.9518456 1.0153724 -2.2234793 2.4393055 2.0784426 0.7983579 -2.8468602 1.1512191 0.29143652 2.6592479 0.8637639 2.8776774 0.41452554 0.04606334 3.4547107 0.99774706 -0.3416145 -1.0531892
3212 -0.08896428 1.454073 1.4621044 -1.7460902 2.900347 -0.696034 1.458365 -0.27870578 0.042307917 -0.77923 -1.5935835 0.28001246 0.8006097 0.56948745 0.0729697 4.2256618 -2.6401505 2.0983243 -1.9955872 -1.5292492 -1.7605556 -0.7939866 -1.9041617 -1.0270079 0.880294 0.84406745 0.028498888 2.9288175 2.346568 2.2201915 -0.15391463 3.3405573
14840 0.8148003 -0.86998063 -0.76846606 -2.1101935 1.4376712 0.5794006 -1.9453213 1.7245923 0.9222179 -1.0108016 1.7361023 -0.104286455 1.7384857 2.0131986 1.4907209 0.18181546 1.6847919 1.2248424 0.013788203 1.6553721 -4.662548 -1.5839944 -0.12383187 -0.10151239 1.3574867 -1.0690204 -1.5788134 -0.97436327 -1.0760268 -2.400384 -2.12993 -0.18269147
8569 -1.0218172 0.6975221 -0.57171285 -1.506194 2.0273862 1.6666299 -1.0193987 1.775097 0.07787827 -0.18050237 0.54215395 0.98569345 -0.20822924 1.9802747 2.07148 -0.4968054 0.9071315 1.6376611 -1.7933255 0.802637 -0.9863111 -0.5727331 0.09122352 -1.6485248 1.1343585 -0.0564271 0.27285492 0.4416265 -1.1581805 1.7957473 -2.862805 1.8876569
25184 0.65385175 0.977715 0.7027637 -0.56202394 0.10226664 1.994668 -0.8808655 2.0934634 -3.1107123 -2.758168 -0.910045 -1.090655 0.75120217 0.7104295 -0.50674266 -2.616693 0.82445294 0.43147853 0.8824299 1.6930847 -1.5430541 -0.39087322 0.15244608 -0.28267252 -1.1372651 1.0146846 0.10902728 -2.1439092 -1.1463677 -0.23147997 -1.2616998 0.32677314
38082 -1.8550423 -1.3859823 1.7431575 -0.7612768 0.11516555 0.11230205 1.7783546 1.9195992 -0.03066754 -0.14393266 0.30023322 -0.47281757 1.8744956 0.056136426 1.1056681 1.1672758 -2.5792537 2.1439533 -2.3152356 -0.5709476 -0.8332525 -0.8544071 -2.005173 -0.60653144 1.0910219 -1.6830654 -0.86192745 1.4560665 0.21244422 -0.38357514 -0.33469835 1.3229975
48159 -0.26341817 0.54551506 0.4643793 -0.66100377 1.2234848 1.6962038 -0.91209334 2.2481556 -3.04717 -0.5914998 -0.97780883 -1.8889383 -0.50448835 1.9885339 0.70912415 -1.6056925 1.9971551 1.7172508 0.65470564 1.4722812 -0.42270333 -1.2867192 0.0610878 -0.39866182 0.5039338 0.7984705 -0.88469213 -1.53037 -1.1338291 0.7867275 -2.929935 0.30287027
31252 -2.0845022 0.2997307 0.30871496 -0.9896424 3.000721 0.9163798 -2.0527802 1.5062265 -1.1542557 0.6011646 1.2848887 -1.4429129 0.35671535 1.7028505 3.139547 0.19305633 3.0264313 2.0764315 -0.38228592 3.2508996 1.4714856 -3.4300249 -0.68871814 -2.8430436 0.3448638 2.9877794 -1.3555362 -0.29310313 -2.6257885 -0.3418717 -2.313813 0.10565741
27768 -0.98056346 1.7267725 -1.1316214 -1.2910647 0.23638652 0.991555 -1.7604586 0.36271113 1.2443216 -0.8103929 1.8359946 0.57567173 2.9641707 3.6040401 1.2769492 1.2211434 0.96565956 1.2306721 -1.9675333 0.48813656 -2.8226018 -1.3895541 0.1831202 0.29400033 3.9696069 -0.8100807 -0.7776562 1.4169204 -1.4003452 -1.1569417 -1.5786679 0.73862743
58682 0.29021373 0.24600342 -0.028504647 -0.73449516 0.194841 1.6961527 0.23959926 1.7000258 -1.1703929 -1.2712806 -0.4406047 -0.910663 -0.15707976 0.8076065 -0.1885581 -0.0757619 -1.3961208 2.6733177 -0.37749532 0.31773552 -1.3337795 0.10743881 -2.193786 0.20558317 -0.18359585 0.35317275 0.6029994 -0.008788921 0.7118459 1.7240802 -1.8016695 0.2994886
42337 -0.29867578 0.47541273 0.6972863 -0.4358256 1.553704 1.3682077 -0.6561871 1.8769451 -1.6831229 -1.100366 -0.7368591 -0.88975936 -0.13626002 1.3161904 0.8556103 -1.1084375 0.83722353 1.6389587 0.11163136 1.142563 -0.29138383 -0.68746257 -0.051591568 -0.27562326 0.21144941 0.5641841 0.011937185 -0.921008 -0.64637643 0.7251601 -1.7646062 0.50489193
8529 -0.3378757 0.40822116 0.3741751 -1.6242914 1.5715479 2.9499347 0.7623776 2.4735417 -0.92802984 -0.6843632 -0.003305313 -0.895302 0.02287825 0.2709384 -0.72840625 0.9345406 -2.7602367 3.8511026 -0.6223331 0.20759414 -1.9182684 1.3990945 -2.1153224 0.60649097 -1.386429 1.2136303 1.8008671 1.0137237 1.4657164 1.1844879 -0.7784153 1.6434064
60280 -1.4569639 -2.6337583 -0.4382857 -5.34705 0.5569288 0.15034677 -0.19089106 4.906786 0.15471539 -1.8730407 3.1363378 -0.3015473 0.5990919 -0.997543 3.3853602 1.0225126 -1.6754457 5.3713894 2.6177323 1.8900313 -0.82785445 1.5668726 -0.8187133 2.4752266 -0.43246576 3.2594683 0.59168094 -1.2037321 3.1162238 2.408597 -0.51585907 -2.4354792
39134 -0.13563702 -2.457008 -1.0578179 -2.6220968 2.8367593 1.4072105 1.1897229 1.9019833 -0.020921452 -2.1476226 1.459616 2.307031 0.55489874 -1.519694 2.111385 0.9552321 1.0763512 3.5500906 2.3451595 0.5093589 -0.2518449 0.035294283 -1.1988941 -0.30670455 -0.44516242 2.2012653 0.5805944 0.33606347 1.613976 1.4536278 0.17417938 0.41175014
12083 -0.4673119 0.45663327 0.4109129 -1.2988048 1.2348914 2.0515695 0.48090073 1.7966121 -0.72268534 -0.6339191 0.015676407 -0.5928801 0.4088824 0.7693841 0.08350956 0.3961253 -1.6197046 2.8122356 -0.71699774 0.2568333 -1.2924346 0.31926668 -1.3781438 -0.13772357 -0.6522726 0.9534721 0.8711053 0.6060958 0.8058776 1.0585097 -1.0165074 1.2646475
43727 -1.1012726 1.2763358 -0.3920822 -1.5536563 1.2151163 2.201663 2.1968336 2.3392088 1.1558741 -1.5389829 1.9390361 0.7397909 1.2165735 0.36122182 -0.30711496 0.9098417 -4.620294 3.5742607 -1.1197505 -0.6469147 -1.2268434 1.9478507 -2.3409781 -1.0109116 -1.7672416 0.9534839 4.229409 2.421835 2.9085352 2.3498333 1.663739 0.20216556
59796 -1.5811471 0.3107792 -1.3481163 -2.1441858 -0.7463872 0.8892083 1.3416969 3.5928292 0.68558866 0.7999103 2.3129072 0.6145672 1.6803441 1.1229644 3.3606162 -0.28834078 0.34690806 1.6184369 -0.17013152 0.6693397 -1.2005268 1.5324715 -1.3476515 -1.6309853 1.582169 1.0749975 1.1038942 0.34950253 -0.45904976 -0.14923514 -0.99948543 0.35345146
9457 -0.54304945 0.68840855 1.0688268 -2.1000173 0.9936711 -0.058418356 -0.18768379 1.5236742 0.26701707 0.616562 -2.2486978 1.5713379 0.1886994 1.7114446 1.9760828 -0.5668643 -0.74455446 0.8566504 -1.9935712 0.6851796 -4.240087 0.71572447 2.0842109 2.41726 0.28306723 2.8677237 -0.07514498 2.1289356 1.0590683 0.1964211 0.032823116 3.1080892
9127 -0.38755196 0.38348857 1.3869834 -0.92488503 1.6720334 2.0054603 0.02213038 0.9310685 -1.6448075 -0.37993982 -0.10767492 -1.1935517 -0.02023083 0.8513097 1.5349829 -0.13064182 0.023217067 1.1047598 0.65782756 1.4894463 1.5403653 -0.69848347 -0.5769514 -0.44178003 0.9382393 1.0198684 -0.48651 -1.4296918 0.3088619 1.2869852 -1.6566985 0.13483554
21299 -1.2734532 0.97252417 -0.44743463 -1.5415409 -0.2159372 -0.0041808872 1.048162 2.57307 1.4030014 -1.1010791 2.679198 0.4464539 1.427068 0.24823238 0.73079073 0.41841963 -2.4210622 1.7103935 -0.2317767 -0.3026458 0.36480582 -0.35040754 0.25671875 -1.2733527 0.15631664 1.4220635 2.8747206 1.1538913 1.591426 2.9632957 1.6321205 -1.2992046
43350 -1.8389429 0.65658486 1.2199956 -1.0861794 -0.40132794 1.6523651 1.3874242 2.9259038 -1.8810093 -0.52392256 -0.09765329 -0.6907649 -1.1194273 1.42718 1.9762716 -1.6693189 2.1746085 2.7833006 -0.4643233 0.8220717 -0.14758159 0.26204732 -0.76992613 -0.7683624 1.3511648 0.25641698 -1.5854521 -1.109676 -2.568148 0.7967764 -2.6562011 1.7545984
72 -2.1745162 1.2265867 0.49205568 -1.354802 0.32531786 -0.044769753 -1.0367235 1.8421687 -0.2809011 0.79884386 0.220634 1.7492917 2.6018724 2.0693407 0.21052721 -1.4809402 0.60760546 -1.2451681 0.48556247 0.68178636 -3.2807999 -0.37291554 -0.060073636 -2.1881669 0.96134764 1.2244455 0.6550073 0.49420977 0.6269159 0.32471123 -1.5398192 2.5337954
28910 -1.9281518 0.9613811 -1.2797987 -0.8850356 3.4236948 2.238696 2.756403 0.9925902 1.8299648 -2.0931137 2.7620971 2.76184 -0.58701056 0.8864232 3.8860059 -0.03488738 -1.1026901 2.4854906 -1.0437038 1.2805246 1.2115995 1.8963469 -3.0900998 -2.6956663 -1.3361658 -0.81896573 4.2054276 1.6590637 3.024054 3.919257 2.1162107 -0.66769165
6697 -1.1554027 -1.4096094 -0.91473544 -1.8020624 -0.71190155 0.34432992 0.21377008 3.4889479 0.009249427 -0.34572297 1.5119944 0.057672862 -0.05720173 -0.8437274 2.387874 -1.3623174 0.13915068 2.6887124 0.38727057 0.23676825 -1.8789452 -1.0045046 -0.5562277 -0.802879 -0.8597585 1.4758365 1.3953896 -1.420757 -0.73043394 1.0145715 -1.3835135 -0.6383057
33983 -0.7727111 0.57972634 1.1889153 -1.97507 0.70569927 0.6991565 0.3261461 2.2141347 -2.5153863 0.6910129 -2.160655 -1.3362547 0.22021775 1.2522569 0.5690465 1.0799615 -0.9187498 1.955994 1.2208748 1.8356941 0.35784253 -2.1619306 0.39619863 -1.3235258 1.4986265 1.751558 -0.16837247 0.7269994 -2.3609123 2.1269004 -1.8670013 1.3285358
48452 0.3024464 2.4067442 0.99873346 -0.2023845 2.0559957 2.5618434 -2.288345 1.2082036 -2.1413834 -1.2978187 0.11881407 -1.0551715 0.25477692 2.4780169 -0.15975685 -2.2305343 1.4067994 1.1648954 1.047151 2.1637912 1.340668 -0.528529 -0.13628398 -0.51316714 -0.4021624 0.35582766 0.22472376 -2.1369572 -0.20494927 0.6183641 -1.9560922 -0.093361236
8866 -1.1727414 -1.2029282 0.110933356 -1.4801838 0.77282864 1.4731413 0.4196987 3.557954 -0.9201051 -0.9763687 0.26050347 -0.38750696 -0.48815417 -0.3844047 2.446282 -0.96856236 0.59789556 2.595306 0.31538257 1.388124 -0.7057298 -0.3359647 -0.46173143 -0.20926891 0.61783737 0.87658894 1.0406108 -0.85989547 -0.73118776 1.6177639 -1.6257298 -0.11806706
13127 -1.6971189 3.948005 -0.6619016 -0.6562413 2.96896 3.4662848 -1.555588 0.25983813 -1.0656887 -1.2024316 1.0956875 -1.4079367 2.0319064 4.003111 -0.5482662 -0.39148378 0.36636078 0.7340612 -1.0621599 -1.6828413 0.92006975 -2.756105 0.028890852 -3.6229327 0.003359944 -0.02890401 -1.7637994 0.18390766 -0.19176961 1.5283201 -0.48100746 1.0977306
17451 0.0054946295 0.9883644 0.9700111 -1.6218812 1.1318619 2.4057944 0.97328657 1.2722586 -0.45737168 -1.1896642 0.038003046 -0.11830655 0.14798069 -0.5315308 -1.435199 1.232994 -1.7226269 2.9745307 -0.8180354 -0.13086079 -1.5077058 0.8134863 -1.5437231 -0.082947664 -1.9676833 0.53322047 1.027907 0.952172 2.1669965 0.5801757 -0.027619062 1.7132528
20940 1.0102023 -0.7701149 -0.64057696 -3.6021483 0.7486234 -1.0957532 0.120114 1.6211616 -0.880557 -0.9960743 0.33921137 -1.3580444 -1.5299467 0.1460599 1.3928306 0.10949258 1.2443053 1.7515665 0.64070743 1.0218235 -1.3449957 0.29621133 0.19867352 -0.15297753 0.09671329 0.555319 -0.33684528 -1.550709 -0.11588353 1.102414 -2.3691146 -0.16696016
24940 0.69385654 0.3035691 -0.16368406 0.05708424 2.004732 -0.11283979 -0.017002147 1.0085537 -2.1305604 -0.30896783 -0.7220239 -0.31050113 -0.6996494 1.5534046 1.6122835 -1.577449 0.96741366 1.3738829 -1.1915429 0.7566998 -0.59314054 0.8869028 -1.4507786 -2.5229616 0.62502444 -0.50289345 -0.15012176 -0.287904 -1.7199284 1.1703776 -3.3208377 0.99057335
40676 -0.61521274 0.5121491 0.32174763 -0.92467755 1.106353 1.7742742 0.23426186 1.8938446 -0.9299017 -0.6177496 -0.06806671 -0.67720765 0.31909227 1.4982206 0.5518423 -0.013023035 -0.8242037 2.535317 -0.49939302 0.55307657 -1.1003346 0.104983054 -1.2470427 -0.3614719 0.067177005 0.9038907 0.3629026 0.2582112 0.07459914 1.2460191 -1.6769732 1.1526493
9790 -0.06194901 3.4740295 -2.1670117 -1.7197803 2.0857904 1.4867305 -2.836207 2.2946787 -1.8000662 -1.5854883 0.69473726 -1.9604834 -1.4874508 2.0467074 -1.0575347 0.36082208 -2.0665147 0.99978924 0.4565416 1.4272351 1.5411503 0.8022185 0.73687834 0.026898045 -1.1631446 1.1570629 2.7204583 -0.8157162 -0.34191447 2.049962 -0.91138273 2.1595883
13249 -0.7569838 0.13691169 -0.62949413 -1.8380196 1.5307611 1.5986363 -0.60083765 1.5406408 0.20355752 -0.7334312 1.9674934 1.3219091 1.9121329 -0.33127606 0.09519613 -1.1193881 -1.0784756 2.0566494 -3.1801274 -1.7728685 -3.956021 -0.3066382 -1.3945498 -1.2782154 -2.6357486 0.31738928 2.92025 0.27361184 -0.093583256 -1.4126323 0.38260835 1.2039995
6700 -0.5612681 0.43710983 1.345649 -1.9579277 1.5272183 0.57718146 0.18497966 1.7141776 -2.3741446 0.40903425 -1.9904187 -1.5466033 0.5090116 1.3603816 1.1678789 1.2881043 -1.3031682 1.4690466 1.1155739 1.3257766 0.8390414 -2.2056623 0.13488418 -1.6229658 1.0769027 2.064241 -0.6030431 0.3736273 -1.6605706 2.1352966 -1.9665357 0.9479662
9125 -0.5266488 -0.7038899 1.6244673 -1.8656186 1.9966664 0.45672125 0.61726916 2.444544 -2.0823495 0.17258401 -1.9154816 -1.0834781 0.78961194 0.0879177 2.0848343 0.86956495 -0.88518494 0.45496404 0.6718674 0.40959352 0.64894897 -1.4419945 0.63882095 -1.0635695 1.352458 1.884898 -0.55902386 0.20520256 -1.1021008 1.9375056 -1.3585446 0.97166777
47775 -0.29555914 0.5287398 -0.09130707 -2.4465806 0.14641616 0.27417085 -0.09796051 1.5106282 -0.04711807 -0.32736388 0.6073174 -0.56735975 0.58626276 0.5721317 0.3135629 0.3780964 -1.831371 2.1993837 -0.8418725 -0.53596544 -2.5154989 -1.7621843 0.19984508 -1.4001513 -1.8645108 2.1801846 0.334044 -0.2991343 -0.13521278 0.57662195 -1.5598167 0.65058196
262186 -2.1243017 1.9908261 0.8739764 0.78781223 -0.17147444 1.2901088 0.111230716 3.376045 -0.79968643 -1.0370693 -1.1577406 -0.04616935 -0.6017912 1.1020148 0.8566269 0.9924433 0.7667156 0.56241274 1.4951423 0.12181969 0.38709646 -2.705976 0.90343726 -0.0005275011 0.9231358 1.8641144 1.3811936 -0.08528153 1.8863212 -0.030707223 -0.92726386 1.919197
11492 -0.5821185 0.57758045 0.31618315 -1.3193903 1.3976176 2.1786242 0.4323101 2.1399834 -1.047407 -0.61384046 0.013149944 -0.72679937 0.47648737 1.2056499 0.2948342 0.19678839 -1.4690726 3.0277386 -0.6454823 0.40493435 -1.3440814 0.2905176 -1.4745086 -0.27499 -0.5085774 1.1963307 0.823498 0.48724878 0.6299186 1.3371192 -1.4793528 1.3406533
41096 -1.8974998 2.0620072 -2.1970038 -2.0482519 2.167452 1.5362505 -1.6631341 0.73116904 -0.86347765 -0.5819572 1.6151544 0.12469646 1.7439663 1.229363 0.21111481 0.5567551 0.769332 1.0417948 -0.6095063 -0.4719776 1.122934 -1.0555369 -0.19399193 -1.1536418 -0.7918276 2.7684631 1.0887823 0.41635188 1.7866218 0.9926797 -0.27048898 0.8966701
4775 0.57464314 0.2898766 0.6283183 -1.6088103 0.50710344 1.4342744 0.68011725 0.31323096 -0.72560763 -0.1873266 -0.024772964 0.21087357 0.24727976 1.425684 0.35673344 -0.6790046 -0.6266202 2.6819541 -0.5188078 0.2612608 -2.1102757 -0.1316095 0.0064531337 0.3744798 -0.70321316 2.7581046 0.041007347 0.7170844 2.201164 1.4544258 -1.3210502 0.18489628
43561 -0.3606163 0.042975776 1.4593242 -0.06695405 2.2438695 1.6721617 -1.5331045 1.2015814 -1.6519064 -1.3094275 -0.86605704 -1.1412152 -1.1917195 1.299005 1.093513 -0.7421698 1.1562674 2.4697645 -0.2135833 1.6393902 1.2109296 -0.8778851 0.055662658 1.1029359 -0.16844222 0.015704876 0.15042534 -1.3530799 -0.0037547653 1.7267754 -2.4409597 -0.08596504
18779 -0.5762472 0.5353463 0.34519798 -1.1630999 0.29516158 1.1803216 0.5550247 0.15487832 0.108211435 -0.6844955 0.43427333 -0.05167025 0.2700345 -0.11190105 0.0015850782 1.6895112 -0.78771424 1.858477 -0.68669945 -0.17462032 -0.10258002 -0.97417426 -0.6796456 -0.8340641 -1.4754364 0.83741546 0.6329276 0.43765652 1.5378457 -0.15279257 0.34119403 0.87297714
393223 -0.9752407 0.5163287 -0.34887332 -0.25660294 -0.025823534 0.47268242 -0.69264567 1.7863902 -0.95188737 -0.313813 -0.3704297 -0.36744076 -0.23850068 1.5715961 1.0658731 -0.58554035 1.2641068 0.6296984 0.4530057 0.90910697 0.06413693 -0.6705455 -0.17835814 -0.49296376 1.4470147 0.53539807 -0.454709 -0.8865109 -0.8660383 0.71259105 -1.8563184 0.27098534
29614 -1.5816013 1.0620233 0.21531273 -1.6601937 1.5243472 2.1936207 0.062461153 2.87586 -1.5922226 -0.85366136 0.29928923 -0.8146819 0.60587215 2.7288487 1.9473644 -0.47659135 0.12030161 3.2191627 -0.8562604 1.1630416 -0.72576624 -0.7631889 -1.153725 -1.2978381 0.8961946 1.7277647 -0.025058532 -0.12882754 -0.5845942 2.444103 -2.8742592 1.7453096
25374 -0.12593564 -0.11067539 0.87518746 -0.6391766 1.4854043 1.3472623 -0.6287337 1.2821876 -1.3373339 -0.70061225 -0.40574324 -1.1026608 -0.7116294 0.64208484 1.2459624 -0.54245824 0.5975297 1.8409337 0.383201 1.2346494 0.3015115 -1.2995037 -0.21290296 0.23834734 0.062659346 0.6681041 0.25134704 -1.3834771 0.043447148 1.3461243 -1.921434 -0.06949084
24955 0.11409212 1.3451159 0.5265101 -2.7927585 1.0970807 -0.10846332 -0.42858872 0.9708231 -0.25598484 -0.99491316 -0.1250066 -0.84392464 0.5725404 0.5889447 -0.4468951 1.7777966 -1.8295921 1.3047242 -0.12869288 0.2771971 -0.60947925 -1.3274292 1.5745585 -0.48645255 -0.57184327 2.9687464 -0.09041701 0.2977792 1.3826941 1.6528124 -0.90997815 0.16435347
42926 -1.2404187 1.3150963 -0.28614965 -0.32359952 -0.0072607696 3.1347566 -0.6592567 1.0544724 -0.52613205 -0.24633785 1.8830335 -0.50829977 -0.070264995 2.2858021 1.3232359 -1.052566 1.059556 3.1258194 -0.11143147 2.0493872 1.8495992 0.4892608 -1.6441281 0.086878225 0.8293034 0.23415813 0.22486475 -0.62579364 -0.58187443 1.6945026 -1.97441 0.01686535
2588 -1.1808579 -0.71649337 1.6491814 -2.1076913 1.6671994 1.7775183 2.762354 3.9629369 -0.4919558 -1.5625092 1.9469581 0.2780774 2.1580741 -3.0138083 1.24368 -1.3286599 0.8840888 4.5820103 -0.25300053 0.35507637 -0.45997116 2.9615884 -0.17459935 -3.0536869 -1.2038047 -0.8292533 1.2965022 -0.3231069 1.7061678 0.7080568 1.0485348 0.37063667
197556 -1.3090037 2.6282198 -0.45688108 -0.7034907 -1.3588336 0.47658512 2.8148987 2.1303332 1.5711269 -0.58341736 3.190675 0.7836207 2.1989698 2.2523906 0.5398792 0.65628004 -4.0823627 1.8967109 -1.4410719 -1.8924735 -0.8660821 -0.6659883 -1.1053928 -3.2550404 -1.4269673 1.6955074 3.493375 2.4224856 1.626383 2.9826217 1.8563458 0.3107224
9443 -0.63975644 0.91549265 -0.48789963 -0.83974385 1.1135069 1.2771611 -0.35609278 1.8479807 -1.6509616 -0.14256375 0.6411793 -1.0154803 -1.0140989 0.55826557 0.42071477 -0.29477775 -0.04955875 1.6001173 0.5670089 0.7808485 0.8222816 0.34328067 0.15911536 -0.17662631 -0.5493257 0.90155375 0.99892384 -0.14307034 -0.7036244 1.1611215 -0.8626439 0.604081
3209 0.12511517 0.48701796 -0.25167263 -0.31987458 0.694777 0.18881872 -0.52667505 0.5158872 -0.56291705 0.016370215 -0.06853447 0.15008163 0.016217085 1.1240586 0.4627567 -0.5873098 0.7222082 0.1740786 -0.33980742 0.87571776 -0.22700144 -0.2575168 -0.31885013 -1.42744 0.56791997 -0.016823232 -0.27272978 -0.42618266 -0.56380385 0.48518476 -1.4699202 0.70632833
44400 -0.33031243 0.38588554 0.58977795 -0.54234105 1.1926124 1.0649091 -0.37219098 1.2301399 -1.2065896 -0.77050424 -0.52383566 -0.71084607 0.062177688 1.2441615 0.7043818 -0.52500916 0.30948105 1.5050342 -0.22084276 0.6460838 -0.21224742 -0.62231416 -0.24055417 -0.21074498 0.14993297 0.5930977 -0.11314141 -0.41723725 -0.3850541 0.8539393 -1.4830161 0.5474937
35168 -1.8695374 2.788251 -1.0972481 -0.88629943 -0.6199455 0.53530216 1.385493 1.7548906 2.1984942 -0.79001385 3.007244 0.99056304 3.571512 1.5392807 -0.18330543 -0.27108446 -4.0242915 1.9209872 -0.77536726 -1.546319 -0.92168385 -0.3392959 -0.45498392 -2.9582415 -0.6189106 0.75433934 3.774372 2.3021796 1.0321894 1.8391099 2.071205 -0.564285
6730 -1.2253957 0.92567617 0.27459046 0.52614444 1.0107156 0.5535478 -2.0785646 3.0394704 -0.69046485 0.25146294 0.3781509 -0.653621 -0.43476403 0.98700005 0.397565 -0.72367233 0.54539806 -0.2262296 1.794676 1.9149685 -0.4350217 -0.71824574 0.32395208 -0.6689495 1.1404092 0.63323855 0.34527752 -1.6921695 -1.2714874 0.31274313 -2.9083788 0.3289305
35549 -0.2719847 2.5772507 0.34061587 0.009382396 1.2382137 1.5575897 -0.400331 0.20761077 0.15171847 -0.7558793 -0.3862095 -0.52212936 0.0611602 3.2786453 -1.1663387 1.4367452 0.031120783 1.3528906 -2.3723876 -1.8189665 -0.056421857 -1.2021825 -1.5348829 -1.3587234 0.0971777 1.331407 0.42852274 -0.64583915 2.0161862 2.4845145 -2.4898808 2.2613015
38496 -1.7840763 3.6249654 -0.45868832 -0.42509001 0.63906366 2.8564 0.6586833 0.5994661 0.06657794 -0.45154655 -1.9244813 -0.15424 2.5065718 0.59611183 1.5724189 2.8618944 -2.5361316 0.62029684 -0.4231166 -0.7181606 0.19888143 -1.7565455 -0.16720474 0.15213646 1.0605996 1.1843286 0.32593864 0.55887073 1.0288608 1.1601373 -0.3306116 3.812378
13030 -0.5110333 0.9005588 -0.2781884 0.56958026 0.6888165 -0.4359475 -1.1530858 1.4970139 -0.9077775 0.15252292 0.08299128 0.087300315 0.10382879 1.5718117 0.6261343 -0.84187824 0.3887563 -0.39823428 0.92431825 1.2733232 -0.22932135 -0.12821327 -0.40468502 -1.2682571 1.2987828 0.41401005 0.13542779 -0.97332245 -1.2966684 0.28085613 -2.2244391 0.9303069
24703 -0.5766162 -0.4581348 -0.585077 -2.4994357 1.7638617 2.1611571 -1.9492942 2.057771 -1.1709479 -1.7745347 1.9389088 0.7631703 0.07999805 0.06247007 1.1711438 -1.0177709 1.4008981 1.7327365 -0.7178582 0.5939388 -1.6287488 -0.8975795 -0.59268343 -0.10287269 -0.5365273 0.6691418 2.472545 -1.6983842 0.4892895 -0.42730135 -0.988689 -1.3747635
49352 -0.8194946 -0.40442914 -0.08095275 -1.919273 1.2400962 1.3639289 0.42190698 1.9497042 -1.1991694 -0.69041854 0.969572 0.034457665 0.41645625 1.173068 1.6449531 0.08273623 0.28792626 2.5967681 0.70782256 0.6133178 -0.33265805 -1.0521604 -0.9170756 -0.48712203 0.042080544 1.7241957 -0.12357625 0.28390244 -0.030268839 1.6584753 -1.420858 0.89094543
2519 -1.4680183 -0.36921725 0.9488913 -0.40523258 -0.14252093 0.47290778 1.2745447 1.2777313 -1.0539389 0.19345114 0.09018574 -0.5430501 1.4389119 1.3812828 0.111064285 0.02407709 -2.8168619 1.4884415 -2.2343957 -0.46450412 0.10413636 -1.0488056 -2.1028519 -0.56648356 0.91187257 -0.8413856 -1.8119668 1.3081684 -0.32460925 0.18447727 -0.6055019 1.9487225
6821 0.03678736 2.3648534 1.5679528 0.28266326 2.4994514 0.8886531 -0.9166414 -0.44930598 -2.0714564 -0.54504365 -1.4869963 -1.4560953 0.70279926 3.5771704 0.29609174 0.40835133 0.31649694 0.4881689 -0.2646493 0.42966667 0.97153306 -1.4821943 -0.6350888 -0.6927658 1.3088061 1.717573 -2.3228986 -0.6392671 0.51594776 1.0962545 -2.9817784 1.9064
12715 -0.6434871 0.7868854 0.58387643 -0.46921712 0.46393064 0.92827827 -0.46637723 0.732262 -1.4442232 -0.3155913 -0.68218464 -0.963126 -0.6856837 2.5538712 0.30225253 1.1000717 0.69783086 2.278785 -0.93187684 0.47064573 -0.115348816 -2.1195102 -0.94957423 0.33848897 1.7220516 1.0515184 -0.7716803 -0.28287345 -0.06684671 2.7206862 -3.6566038 1.753579
8595 -0.009800992 1.9857869 1.0003045 -0.99603444 3.2888286 0.9295867 0.9844196 -0.74533206 -1.0404245 -1.2649988 1.2198653 1.8520708 2.5917025 3.538173 -0.16671841 1.918647 -2.5547647 1.3103156 0.28520182 -1.1127638 0.34042817 -0.42200908 0.025135316 0.329408 0.14929034 1.8505957 -1.0540761 3.5418983 1.6314567 0.7005429 0.5602164 3.5758238
30886 -2.5525506 -0.45186844 0.63363147 -1.3470063 0.30733013 1.8610754 0.2181209 3.0434265 -0.3477075 -0.43906856 0.5572402 0.1621698 -0.19989121 0.124867104 1.9189819 -0.2113549 0.5064171 2.8532977 -1.7835971 0.9133032 -0.22526462 -0.5448068 -0.93696475 -0.08141381 -0.0062760594 0.29405114 0.53904533 0.16772863 -1.6473267 1.0249597 -0.8576164 1.7070336
17072 -1.9451091 1.1937275 -2.3040316 0.16729553 -0.036491007 0.33708152 0.35282037 2.0758572 0.49135116 -0.080166146 1.624315 1.2788223 1.2763739 1.7404118 2.1273031 -0.56064624 -0.5041973 -0.067977645 -0.4192017 -0.15730226 -0.48078448 -0.9103349 -0.4072134 -1.6685495 2.9691122 1.7314523 0.9970469 0.32843226 -0.39469945 0.9145396 -0.33192304 1.3218521
29208 -0.22041214 1.1321044 0.7411004 0.327145 0.55258524 0.37284648 0.60291696 0.2645511 -1.4021444 -0.32279015 -0.105589084 -0.40875435 0.96542937 1.9664017 0.10225082 -1.437074 0.30191067 -0.21344568 -1.0896833 0.2477673 -0.4504979 -0.9930176 -0.8049354 -0.6250441 0.70961624 0.25424513 -0.82099855 0.013757671 0.16579369 0.21212757 -0.7113417 0.8801456
9503 -0.21492201 3.91569 -2.2598813 -1.4365305 1.7511816 0.39746284 -3.1610634 1.4493195 -0.26412606 -2.5714495 0.9143643 -0.5178021 0.012195965 2.7830238 -0.25670186 0.07954325 -1.211799 -0.45764443 -0.21095811 1.4347395 1.0612748 0.27581722 1.2284691 -1.0712171 0.06414664 0.7070676 2.0933518 -1.2134198 -0.40924403 1.6471959 -0.5568332 2.2663875
4628 -1.0526756 -0.015040403 0.5667395 -9.085468e-05 0.2613923 0.44807577 0.3367457 1.1335155 -0.6884541 -0.04794597 -0.0424396 -0.22389294 0.99779356 1.2187515 0.8451792 -0.009157914 -0.19913778 1.4372882 -1.1685907 0.08774001 -0.103030905 -1.1047881 -0.8329713 -0.8400879 0.78265625 -0.080577575 -1.3977904 0.27471834 -0.658808 0.6403803 -1.2193835 1.2486823
262907 0.53066736 -0.8107612 -0.48106432 -1.6335131 1.8968114 0.83889365 -2.0758948 1.6057032 1.8595629 -1.7637312 1.9134381 0.43951064 2.0738385 1.6268572 1.7927332 -0.108620495 1.8598043 0.72124076 -0.35770658 1.3587953 -4.4315944 -1.7802215 0.321767 -0.41548368 1.2803887 -1.2917575 -1.4029124 -1.55592 -1.1259373 -3.0032768 -1.4209304 0.121299006
4538 -0.8273253 0.66705525 0.16137655 -1.2464019 1.1504724 1.7351176 0.17703323 1.7403407 -1.038825 -0.5239955 0.12599425 -0.5804383 0.61714554 1.4298961 0.53355205 0.0463725 -0.7018821 2.433836 -0.7682104 0.46183988 -0.98493576 -0.17041929 -1.2887188 -0.62220144 0.00016959973 1.1392949 0.2625829 0.36916152 0.08791473 1.217082 -1.5849324 1.332573
1237 -0.40113723 -0.028830456 -1.533097 -1.2384773 0.65387946 -0.11657505 -0.89283776 0.13977495 -0.596945 0.015286663 1.487049 -0.22131948 1.1049819 2.0663133 1.2313141 -0.59809315 0.3062721 0.3048405 -1.0015293 0.5830069 -1.0419917 0.61108553 -0.08564012 -0.012430766 0.8838016 1.918011 -0.111655556 1.615039 0.389622 0.6015432 -0.644861 0.547653
21013 -1.2957661 2.179694 -0.7776889 1.2566781 -1.7224256 -0.14997584 0.55851555 0.3250059 -2.3082118 -0.7469524 -0.8946514 -0.266806 -0.08196722 4.4280124 0.4885599 -0.32196465 -0.48399508 1.7394692 0.8643531 -0.024135362 0.48554468 -0.18632151 -0.2336957 0.6324084 1.3676791 2.044402 -0.5738374 -0.06529207 -2.1699169 1.125686 -2.45708 1.9420811
34779 0.050845694 0.17477712 0.6834457 -0.19445145 1.5683796 -0.40229082 1.6466283 0.5565444 -1.08055 -0.4333052 -0.43687463 -0.565045 0.13676967 1.1288693 1.9966922 -0.1340388 -0.1546185 1.663231 -1.1823685 0.21435004 0.54439354 1.611678 -2.0360315 -0.9575717 1.1860288 -0.2454406 -0.30741525 0.057628535 -1.0377388 0.997606 -1.3094621 0.88846767
197695 -0.24505931 -0.43067923 -0.092410326 -1.5298041 0.85350007 1.1107808 0.523754 1.006411 -1.0796825 -0.3332894 0.67683196 0.028059458 0.58950865 0.80364925 1.1515844 0.44085228 -0.0028070672 1.9038293 0.9971745 0.149603 -0.19384529 -0.97601426 -0.88849735 -0.23582782 -0.51442736 1.5870336 -0.026184678 0.28330648 0.43596336 1.3948389 -0.8381386 0.4309393
17139 -0.92915905 0.7719183 0.33761922 -1.603798 1.5850953 2.5903351 0.37632966 2.6578002 -1.3409483 -0.7294689 0.01884149 -0.8486014 0.540087 1.6677129 0.6677654 0.042121567 -1.2841309 3.3975902 -0.83948475 0.59235156 -1.4419813 0.11425564 -1.6848283 -0.46696293 -0.16855125 1.4183019 0.8006189 0.50660044 0.40429032 1.5771325 -1.9430298 1.6405973
25227 -0.68757105 -0.67463833 -0.402088 -2.1349711 0.81304306 0.74742746 -0.156836 2.3846207 0.9183288 -1.2557214 0.36505428 0.42353997 0.052080628 -2.5372229 1.1247874 0.06986308 -1.4079942 1.3591759 -0.8884482 -0.022139225 -1.5313144 -0.06935285 0.9113362 -0.15599865 -0.08015728 0.8587268 2.2671201 -0.21165584 0.64468366 1.0594211 -0.3178752 0.30373877
262761 -1.812809 1.8224684 -0.2443001 -1.9191631 1.1532184 0.8181162 1.0037456 -1.1639038 0.16178073 1.1142129 0.018670807 1.0764663 0.4119872 2.1293228 1.215306 0.8994871 -3.046295 1.6887873 -2.2354617 -0.026330901 1.5882283 0.48659277 -1.3013678 -3.0898623 1.0481412 2.2383375 0.48399207 1.6958439 0.72092706 3.2052464 1.8515996 1.5422875
29687 -1.457946 0.043714687 0.11518111 -1.5977882 0.5792552 2.2011182 -0.0059810383 2.8514302 -1.2254658 -0.8467546 0.8279281 -0.81380177 -0.115909845 1.5171227 2.1458771 -0.96069854 0.7905355 3.126544 -0.16167116 1.6102474 -0.15302466 -0.7171615 -1.3710302 -0.7475584 0.67715746 1.1554725 0.40210238 -0.71008503 -0.6119486 2.3776789 -2.6332793 0.28583747
132132 -0.6450932 0.63527876 0.36290058 -0.5797189 0.71099585 0.85349697 0.16570602 1.0638382 -0.82753044 -0.59646654 -0.32482088 -0.41760114 0.74384457 1.6488025 0.24552307 -0.055816088 0.48715273 1.8783079 -0.6485824 0.32018712 -0.30809063 -0.8780752 -0.67125416 -0.9858703 0.37783113 1.0667597 -0.9896521 0.18100856 -0.2197615 1.1092467 -1.6496669 0.971046
25447 -1.7943337 0.13905096 -0.9524315 0.8670345 -0.1291075 -0.03382936 0.8923505 1.3605396 -2.4274888 -0.87999016 -0.28833482 -0.5892264 -0.4389339 3.1397243 2.625575 -2.1182308 0.0102813 2.1903572 -0.005885268 -0.1007574 0.3629256 1.6180499 -1.0303118 -0.5734344 0.89445776 0.7530124 -0.013573388 -0.5296047 -2.7709749 0.8418303 -2.2432678 0.8528628
22822 -0.5618378 0.7590344 0.75140077 -1.5347737 1.9450291 0.33595136 -0.40917957 0.772119 -1.7485937 -1.0168759 -1.3199815 -1.6144682 1.4875886 2.322183 2.13796 0.5113271 -0.85372066 -0.04973187 0.64348745 0.29912066 0.39908645 -0.9701933 0.572799 -1.3227308 0.5698711 2.1595492 -3.2486713 -1.3381222 -0.88421464 0.6592469 -2.3759913 0.7953946
27932 -2.094237 1.9045352 -1.4337672 0.3758942 0.2793261 0.7427644 -1.3447616 3.3520496 -0.5441245 -0.44725728 1.1257602 1.8656366 0.8375777 1.7456357 1.5096649 -0.187437 0.606297 -0.88615066 -0.859444 1.8268304 0.14364623 -0.5227576 0.914341 -1.0370188 3.3373885 0.9549164 0.6297997 0.64429915 -1.0873041 0.88473505 0.5412049 0.77461255
6306 -1.780995 -0.014572385 0.5398571 -3.0564718 -0.56523466 1.1918913 -0.19951291 2.2024558 0.35678434 -1.9671199 0.31720215 1.6096301 1.2140039 1.4606769 2.244096 -0.8435973 1.0042259 0.20270303 -0.9399589 -1.0336398 -1.7714992 -0.6195937 -0.5582817 0.5487164 1.4635785 0.84902906 1.1863437 1.0691335 -0.50279564 1.8872736 -1.659986 -0.36110935
29405 -0.7747609 -2.079925 -0.56704456 -0.47154415 1.1254761 0.40658057 0.71677136 2.9948688 -2.2574005 0.8719349 -0.69574225 -1.1389997 1.7132368 2.145833 2.4998667 -2.5440025 2.2156835 2.0531435 -0.33466548 2.1271734 -1.4078287 -1.9735895 -0.2632655 -1.4466629 2.2794888 0.96250653 -1.6508979 1.5480803 -0.75963944 0.85610545 -1.4316233 0.34067512
38264 -1.0395089 0.7315735 0.06627916 -0.9345023 0.84752053 1.2921901 -0.0690201 1.8192166 -0.94272435 -0.58511376 0.2584973 -0.3660129 0.50691473 1.7502694 1.3311903 -0.53386945 0.5784494 1.730146 -0.46864697 0.844877 -0.5276334 -0.56840414 -0.4925999 -0.9022596 0.83595735 0.97417074 -0.2015373 -0.12625743 -0.77553666 1.2746466 -1.7500633 1.1238313
24218 -0.3646374 1.4127388 0.30362234 -1.402564 0.76219374 2.2164476 0.63894594 0.8092207 -0.16851172 -0.77809227 -0.5686413 -0.3710958 0.7898774 -0.070088394 -0.58635694 1.7933946 -2.9171352 2.0060794 -0.6423319 -0.5711271 -0.7676719 -0.051929783 -1.2608345 0.548931 -1.2985171 0.8699089 1.0972903 0.8558785 1.8332574 0.6902786 -0.03487882 1.8350834
48265 -0.8969271 2.0468767 -0.4038016 -1.2434682 1.4683938 2.790604 -1.1352652 1.1373453 -0.6797261 -0.31202748 -0.44294116 -0.30026445 0.40714782 2.7453003 1.3010365 0.3331707 0.3858862 0.78837204 -0.51987517 0.61412174 -0.2402654 -1.8214042 -0.40837747 -0.80423886 1.1533332 1.4979739 -0.0033659597 0.82941025 -0.50874203 0.8153014 -1.9600111 1.3250573
12406 -0.033711925 -1.1349094 0.10353795 -2.7005434 0.99722064 -1.1604794 -0.44768596 1.9323093 0.60351473 -2.0345297 0.46566066 0.61447996 1.7362946 -0.277555 2.2249243 0.7351237 -1.4121486 1.4148498 0.8090803 0.5148168 -1.6009842 1.4062709 0.29167438 1.4990627 0.97647166 1.5611075 -0.061523464 -0.23310693 2.121205 0.36088276 -0.128456 -0.77853805
21219 -0.7189464 0.34554023 -0.23832598 -0.9252602 0.43562093 1.8123562 0.22769612 1.6736423 -3.0040298 0.43987352 0.4152135 -0.25945935 -0.42261964 2.336077 3.3773074 -0.13313168 2.9274826 0.91900533 -0.10116178 0.75399387 -1.768148 0.9054033 -0.13019678 -0.95906967 3.0678263 -0.08415357 1.4033961 -1.3040344 -1.0434186 1.6553704 -2.8060765 -0.25144023
13335 -1.1040804 0.84632003 0.02439618 -0.831435 1.0209252 1.2154037 -0.11309229 1.6321955 -0.7666538 -0.6062342 0.32178447 -0.09511205 0.62339246 1.6747657 1.3191525 -0.36463442 0.2903054 1.7195157 -0.62426496 0.6400013 -0.36729893 -0.5351958 -0.4209898 -0.9677032 0.7386659 0.922008 0.006748226 -0.02483461 -0.3805532 1.3015035 -1.4644309 1.1641908
28685 0.048420653 1.8960987 1.7603942 -1.0317864 2.1252174 2.192118 -1.4444786 -0.021533469 0.39814144 -0.28232 0.12564756 -0.18501982 0.7519406 2.15522 -0.41441312 0.53641737 -0.15968086 1.5365269 -2.71986 -0.2740869 -3.402495 -0.82844126 -1.1019177 -0.36664376 -1.3557934 -0.67721194 -0.93748903 0.79014677 2.0254354 -2.706226 -1.0685692 3.302486
21183 -0.7253587 3.395422 -0.754967 -0.63358706 1.4307734 2.8811433 -1.5978893 0.3578074 -1.376359 0.22155324 -0.98921806 -0.7195347 -0.22839437 2.658354 2.0458496 0.34046042 3.0255504 0.601761 0.014481855 0.78577924 1.7645512 -2.515134 -0.5915071 -0.35499802 1.5886935 1.6256493 0.019951098 -0.26196757 -0.67317253 0.33352748 -2.5663745 1.5743695
6848 -1.8523276 1.502259 0.3730848 0.4826412 -1.0454338 1.5470465 0.66327053 2.519299 -1.2903919 0.17748293 -0.5689338 0.22922751 -0.46550107 1.1519357 0.43951085 -0.6680853 1.5882254 0.29885498 0.9617732 1.0019875 0.076253995 -1.1975125 -0.03573836 -0.35856697 2.0595877 1.1996855 -0.6729887 -0.3819452 -1.8819692 0.8107742 -2.004388 1.8723317
47232 -1.9706427 1.6672577 -0.19418335 -0.322296 1.6008977 0.13589254 1.2682941 1.9487118 -2.5341184 -1.5659968 -0.7332009 -3.2353277 -0.58081865 1.7196231 2.0988872 -0.7745126 0.4391262 0.32330662 -0.5274537 1.7333689 -0.33299875 1.6766617 -1.5877383 0.24181148 2.4078128 -0.55317706 0.36086097 1.0335981 -3.2339697 -0.20978925 -3.5092447 1.8680152
27855 -0.86575043 0.8148254 -0.03825646 -0.6939693 0.52803934 0.4172031 -0.6233674 1.8941346 -0.6033802 -0.6899901 -0.17511782 0.34749293 0.15410176 1.2421266 0.6030475 0.21601893 0.0077489223 1.0326388 -0.12114751 -0.21562247 -0.4723495 -0.33414534 -0.1585661 -0.38509098 0.43383622 0.61197734 0.5166225 0.21264377 0.3387435 0.8388361 -0.89648 1.0712636
9848 0.754384 0.65327895 -0.26660872 -0.9944919 0.91302 0.78934383 -0.06476333 -0.23772936 0.113057226 -0.12952827 -0.035208814 0.24397422 0.5722817 1.0258108 0.25185463 -0.3797797 -0.77056503 1.0361812 -0.20063202 0.36747307 -1.7048235 0.23386472 0.39863843 -0.07653582 -0.4227347 1.2714602 0.18736126 0.17008927 1.4906867 0.63099414 -0.48577344 0.0594008
15296 -1.6684854 1.9088441 0.1706854 -2.1561208 1.4029512 1.7810515 0.9114504 -0.24571992 1.444597 -0.18175116 0.4158894 1.7381284 1.3457243 -0.9772429 0.6511592 1.2252204 -0.07996333 1.529212 -0.58410394 -0.1999318 0.15023948 0.44042996 -0.24644248 -0.58944273 -0.21487379 0.9064503 1.2973197 1.4124426 2.7173903 1.3758166 1.0704098 2.0902958
196714 -0.9281993 0.8323047 -0.5241438 -1.1405891 1.3561546 1.1734964 -1.8799162 1.3406106 -1.1729692 1.297233 0.6576934 0.4485639 -0.5944631 2.0052779 1.4684049 -1.2928919 1.915424 0.041994557 -0.20009758 2.2283633 0.17021601 -0.89026105 -0.047970373 -2.9170392 1.5478055 0.20429273 -1.011307 -0.741179 -2.0275815 1.0686986 -3.3227289 1.5749589
15694 -0.67187065 0.5925705 -0.27872312 -1.6303244 -1.4366788 1.1655445 -0.49876896 1.9225667 -0.88329655 -0.030816946 1.4204303 -1.8442209 -0.111500934 1.2935066 0.3439525 -1.0980858 0.0033181037 0.9904203 0.22016397 2.0588782 -0.5493596 0.43876377 0.44625103 -2.2681286 -0.058563713 1.2412313 0.028442524 -1.5324793 0.530241 2.0161757 -1.1886582 1.114507
8331 -3.1057193 -0.079531446 -0.39597082 -1.4632933 0.41035053 1.2323726 1.0122491 3.5649538 2.457973 -0.49478495 1.4013435 0.48672673 1.5859429 -0.62393254 2.8620217 -1.857972 -0.25192487 1.8152527 -1.2189482 0.14664702 -2.2830443 1.6846557 -2.3151984 -2.064818 -2.372915 0.7213509 1.0741097 0.6392862 1.0183718 -0.8851674 0.44442448 -0.0019679945
30844 -1.2694149 0.1664731 1.0113822 -1.8914108 1.1714864 1.1646347 0.77026576 0.9313553 0.7388556 -0.8234193 0.5656248 0.9759547 1.1551538 -0.95656246 0.46130577 1.0731733 -1.7307657 2.1879551 -1.9308692 -0.4455552 -0.72410995 0.14915995 -0.1258737 0.2499351 -1.3450602 0.42714256 1.0108415 1.7794582 1.5446757 0.74012774 1.3200543 1.9884452
5563 -0.8674582 -1.2773917 -0.15606225 -1.2116284 0.8048875 0.8030143 1.5508264 2.8444126 1.4887055 -1.1065977 0.5939828 1.4878056 0.6058771 -1.5598683 1.328563 -0.90211755 -1.2907283 2.1958897 -1.1553451 -0.41749695 -2.8019338 0.7864906 -0.67057717 -1.1475228 -0.46571338 0.31085142 2.357479 -0.41736147 0.095511936 0.3778758 -0.21561997 0.5410624
29170 -0.58296824 0.68078256 1.329694 -2.3353357 0.056479536 0.91008043 0.29429364 1.4988952 -1.5446497 0.9324828 -1.879157 -0.8642573 -0.25207728 1.123528 0.32110238 1.6666505 -1.1293547 1.6937567 0.9856323 2.057132 0.30652022 -2.508981 0.51160157 -1.0226177 1.1446971 1.2309104 0.29472724 1.478629 -2.156967 2.1692936 -1.0179676 1.1313775
4725 -0.27835017 1.7819394 -0.060459267 -1.8153951 -0.5407093 1.1317704 -0.5265269 0.22982185 0.5365089 -1.2167671 0.36690685 -0.02371395 0.24216211 1.5308784 -1.6787347 1.4984187 -0.39049163 1.4321262 -0.10867454 0.034082983 -0.69982415 0.87606806 -1.1018219 0.21989004 -1.7689456 0.55190516 0.6945295 0.3430111 0.1597629 0.35263014 -0.70417917 1.8332137
24954 -0.18562748 0.55638623 0.34380877 -0.84604675 0.99795556 0.9929493 -0.012666672 1.8929905 -0.70752054 -0.79307425 0.6698388 -0.43565288 1.2657558 2.0605373 0.52644235 -0.2854163 0.110182896 2.47576 -0.88141674 1.1813482 -0.22334437 -0.4813846 -1.0838547 -0.8776759 0.22655238 1.1905072 -0.42565393 -0.0859848 -0.5648268 2.0768929 -1.3289449 1.0624604
24631 -0.036085285 0.4970711 0.3293919 -0.40694377 0.50129354 0.8303115 -0.33129418 1.080644 -1.0525727 -1.1098912 -0.32790735 -0.43814233 0.31384718 0.6839162 0.24938254 -0.8775934 0.4521303 0.61201036 0.16311105 0.6941589 -0.5400733 -0.384339 0.072096646 -0.2551644 -0.16638048 0.44292268 -0.13028686 -0.76505834 -0.48575166 0.16910791 -0.76339597 0.326777
31287 -1.2077845 1.1948436 0.14038503 -0.36625668 0.5166583 3.0599403 -0.8705383 1.3280103 -0.8668751 -0.7987814 1.7247515 -0.38659707 -0.337697 2.03826 0.7087337 -1.5726575 1.1345398 2.8845966 -0.19761965 2.0360832 1.2505406 0.24158023 -1.2895354 0.004580632 0.4523469 0.09146079 0.44122544 -0.64459455 -0.27739954 1.955509 -2.0346117 0.10069076
21413 0.320992 0.12415571 -0.3207045 -0.6965501 1.7868104 0.38809848 -0.3727366 0.91932994 -1.7914994 0.2970145 -0.22865404 -0.17613897 -0.87872666 2.0619135 2.3234186 -1.5566021 1.066728 1.3577719 -1.3525109 0.8292155 -0.30710962 0.75609076 -0.4943277 -2.7562993 0.69461405 -0.6917049 -0.7293388 -0.17819856 -2.0128627 1.3809592 -3.2515388 1.0544199
293 -0.54685265 2.7235394 1.3357226 0.29987574 0.01067837 1.71828 2.3345556 1.8021299 -0.22662061 -0.9056953 -0.65174216 0.51889974 -0.21607521 -0.56411415 -0.24581583 0.55700403 -1.0774622 3.3482502 0.03622444 1.3436034 1.3751829 0.1728722 -0.27346942 -0.8000416 -1.2916133 1.260631 1.0643175 -1.7181228 2.2504976 2.627378 0.8773562 2.7790124
41789 -1.0153062 0.99877065 0.34234118 -1.4926373 1.5609453 2.174574 0.040941715 2.333475 -1.3068945 -0.6907232 0.17788877 -0.8904851 0.68731105 2.1121483 0.965744 -0.1101675 -0.7277923 3.0102675 -0.7911946 0.8111598 -0.99310255 -0.46016562 -1.2149807 -0.71568984 0.2669682 1.4213276 0.1908605 0.31431755 -0.0018779672 1.7320102 -2.1040373 1.5025978
5391 -0.53655154 1.5875429 0.32049355 0.45072412 1.4607258 0.359746 -0.09212274 0.48553532 -1.6160058 0.34835806 -0.48570368 -0.66309494 -1.6293305 2.671754 0.718984 0.70479804 2.653859 3.1117523 -0.68232113 0.35373184 0.60966486 -2.3313613 -1.9014341 -0.8075383 2.081538 0.9475214 0.05829803 -1.0309937 0.12610586 2.805895 -3.561637 2.2583332
15958 -0.35286343 1.1967561 1.3683478 -2.0821748 2.1612897 1.0489377 -0.3233226 1.1273391 -2.2073815 -0.89882463 -2.0773947 -1.9113901 1.4224509 2.489105 1.119185 0.96528745 -1.4598193 -0.034916844 0.54598796 -0.06425453 -0.08039169 -0.8904161 0.2547973 -1.164514 0.65031546 2.1189454 -2.831011 -0.5198606 -0.40248042 0.796561 -2.4359787 1.3718568
4809 -1.4792893 0.8557068 -0.23434687 -1.9368328 1.086054 -0.31175482 -1.043999 0.42303476 0.8320818 0.5466825 1.869531 -0.38154414 3.23665 2.8212652 1.2738161 -0.1480866 -2.8575716 -0.37600088 -3.9637482 -1.0715386 -0.6715568 -3.2229047 -1.4310474 -1.18089 1.849031 -0.25742838 -0.73521465 1.9708619 0.4970924 1.0465102 1.881298 0.5329842
31117 -1.1564767 -1.5508397 -0.12703656 -0.79317653 1.0447546 0.7236158 0.78967047 2.2953105 -1.9069488 0.68992233 0.28463352 -1.3082186 1.6175143 2.1632366 1.6915407 -3.1762629 1.8319833 2.0425963 -0.92798287 1.8655475 -0.96404845 -1.822749 -0.77240014 -1.3970279 0.904498 1.0942398 -1.7752808 1.3799567 0.15569349 0.466501 -0.4213948 -0.31292844
49063 -0.875573 -0.8126359 -0.30630958 -1.2556231 0.052659433 1.0672766 0.8410285 2.6819103 -0.13320816 -0.62437624 0.48735863 -0.03773012 -0.093432456 -0.53146994 1.5495231 -0.63125205 -0.33948654 2.1996756 -0.12348325 0.3458692 -1.4970607 -0.01537132 -0.74757546 -0.73262954 -0.27121243 0.85255057 1.4349555 -0.49602184 -0.5698071 1.0404476 -0.8971049 0.14020036
16097 0.482462 -0.12723745 0.504966 -1.1059085 2.241013 0.45199168 -0.052299447 1.3877296 -1.9458479 0.08194825 -1.3614868 -0.6441734 -0.13354631 1.692079 2.5012455 -1.688138 1.8652734 2.2447643 -1.171759 0.999687 0.29672155 0.43966386 -1.342225 -1.9065921 0.67532593 -0.7905851 -1.026615 -1.6236807 -1.67933 0.5911744 -1.5498871 0.48409167
29632 0.0661857 2.7126763 0.727784 -2.21795 3.2191277 1.8954353 0.09053543 0.50988245 0.24198349 0.021610562 1.7019392 0.5354566 2.9438362 0.60464156 -1.7244772 -1.2793465 -1.2030206 1.7773021 -1.4968144 -0.12070078 -0.7443425 1.5258176 -1.292438 -2.530365 -1.3732818 1.2668352 1.4903386 1.3635547 2.6110628 0.99371284 1.9951168 1.9334825
17444 1.5456165 0.7831216 -0.39317435 -1.4260113 1.5343469 1.2517332 -0.5661472 -0.7213362 -0.3633507 -0.47168672 0.7419468 0.13511181 1.3452005 1.9403713 0.35534582 -1.0353845 -1.2787566 1.4334095 -0.08251332 0.13191003 -2.44393 -0.14977488 0.0380568 -0.79710644 -1.0183134 2.0469558 0.24547137 0.13316724 2.573898 1.0783988 -1.1662033 -0.79749805
15836 -2.8255708 -0.2812221 1.4226514 -0.6608477 1.4202424 1.440174 0.5574286 1.9996474 -0.88264644 0.45110434 -0.2821348 -0.80444986 0.5044864 0.5735058 1.8689736 -3.0282235 1.9488599 0.6735208 -1.6559432 -0.185368 -1.8485926 -1.0944965 -1.2344269 -0.5492006 1.4653203 -0.23387715 0.8038792 0.9246607 0.9675806 -0.09398973 -1.1549109 -0.34318087
6718 -1.8185548 0.72577643 1.1396192 -0.7807172 1.0726308 1.3264694 0.3487217 0.911173 -1.1538067 0.38488826 0.03780462 -1.2079571 0.42149025 1.914518 0.6990725 -1.6243501 1.1936357 1.3908232 -1.5979412 0.048576087 -0.95298696 -1.0572114 -1.4579808 -0.8574974 0.61069286 0.12714003 -0.30987465 0.70616674 0.34959877 0.47905344 -1.6623563 0.562798
35567 -0.49253318 0.24414515 0.5475661 -1.1267588 0.09342991 -0.020291481 0.513099 1.2354099 -1.2317898 0.88822526 -0.90884715 -0.72454625 -0.4222632 0.824397 0.45244008 0.83635825 0.39861226 1.4267561 0.604739 0.90090775 -0.21873409 -1.4420191 -0.23398398 -1.0240151 1.0334364 0.72454256 -0.23474407 0.4853929 -1.3233122 1.3503786 -1.1927134 0.9405454
262191 -2.8751388 1.8282388 -1.1387786 0.66104835 -0.87418634 0.702879 -1.5345192 2.5210075 0.3643943 -0.5502337 -0.14097314 0.2419931 -0.24491175 2.2854836 0.5266867 -0.21221846 1.8474689 0.09561679 -1.367179 1.3640689 0.22127478 -0.7162643 -0.34236494 0.39115366 3.1179514 -0.16344559 -0.46242023 0.14465064 0.003189217 0.1394691 -1.427881 1.5720371
8778 -0.90112674 0.9673435 0.7306951 -0.109478086 1.8710486 1.9688 1.530598 0.48899367 -2.2488966 0.47894162 0.40578958 -1.3334653 2.0614822 3.4953609 0.54863787 -2.6695418 0.030560078 0.78094876 -2.2882211 0.7806806 -0.36395392 -2.5009286 -2.4036882 -1.3265524 -0.34165272 1.7161514 -2.4968922 1.1570826 0.7530939 -0.3672652 0.11299372 0.55704945
52965 0.39883146 0.6292151 -0.0888804 -0.5684441 0.744076 1.4806362 -1.2011044 0.9490296 -0.31784618 -1.0764136 0.2430822 -1.2338139 0.44651622 2.018244 0.42741498 -1.0079185 1.5777643 0.7000679 -0.11410809 1.1859057 -1.7210851 -0.21497522 -0.42369318 -0.36913782 0.65765536 -0.77216226 -0.97797817 -0.8116878 -0.80190456 -1.598193 -1.5629492 -0.06078009
56534 -1.2514541 -1.0757387 0.28979832 -1.1722758 0.65009004 0.62913734 1.6462529 2.5587533 0.98318684 -0.9943256 0.3432268 1.1106352 0.7713081 -1.5534642 1.9175308 -0.7343313 -1.3179027 2.1399486 -1.5793256 -0.3401733 -2.61224 0.557116 -0.9113022 -0.84984225 -0.38174897 -0.0082735205 2.2177725 0.49773803 -0.57618713 0.31216076 0.17218174 0.9155644
46849 -1.5645767 1.6086608 0.23285878 -0.8076719 1.2633536 1.7616453 0.083102144 -0.9006115 -1.0526829 0.5348867 0.8504118 0.30366495 1.9685047 0.9481816 -0.27392033 -0.2717614 -0.3268782 1.5185882 -1.4396548 -0.3525264 1.2586339 -0.8516837 -0.17825793 -1.4731604 -1.2142268 1.5279127 -0.10066292 1.4660677 0.28469428 0.41015533 0.49256045 2.430886
31167 0.12025608 1.8140333 -0.31204358 0.282646 0.32179263 0.1047274 -0.2364513 1.0893207 -0.90179247 -1.1439041 0.7668533 -0.12517802 1.9843329 3.8803842 0.3572481 -1.0876304 -0.120531924 2.1005533 -0.3073595 1.1932591 0.159874 -0.30344024 -0.6850194 -1.1746807 0.2924579 1.6744874 -0.80301875 -0.3879167 -1.4933933 1.5734826 -1.1861684 1.5382406
1267 -0.3788705 0.7635874 0.5525777 -0.6049099 0.44034964 0.52977973 0.04188436 0.54221666 -1.0691445 -0.008886285 -0.7576251 -0.842505 -0.5345906 2.0582094 0.5452817 1.068436 0.23482378 1.6148177 -0.6368284 0.30165732 -0.44232333 -1.8909749 -0.8144708 -0.13174127 1.4668807 1.0062501 -0.71122897 -0.17216016 -0.39864138 1.9743989 -2.7533522 1.5409225
6736 0.36657956 0.62706554 0.624277 -0.43470594 0.6591811 1.2258781 -0.5590937 1.186706 -1.708579 -1.5334204 -0.627288 -0.6184982 0.44818377 0.56256896 -0.27330926 -1.3198119 0.61990416 0.70098644 0.5074951 0.92188555 -0.44725555 -0.66561925 0.37897474 -0.13766283 -0.61908084 0.4691612 -0.163823 -1.2871996 -0.5335803 0.175732 -0.77017003 0.17713419
3316 0.36430916 -1.318433 -0.8326899 -1.1033553 3.082132 0.7323216 0.93178594 1.6376511 0.0016300353 -2.6483908 0.0712016 1.5070817 0.7313064 -0.7198639 1.5325713 0.63332653 0.65061986 3.0088458 0.7958622 0.5438081 0.08418224 0.15644598 -0.105677046 -0.9741432 0.67710286 1.3270713 -0.056836255 -0.0800526 1.1095265 0.9696438 -0.5054879 -0.10534346
8445 -2.1684873 2.1682336 -1.169099 0.5917335 -0.2487781 1.5718615 0.33920795 0.42451403 -1.5757734 -1.0091689 0.3854506 -0.40543076 0.2805355 3.2911978 1.3040557 -1.7781497 -0.49372947 0.5516456 -0.033835117 -1.3111521 1.0122169 0.42846176 -0.24029107 -1.4069182 0.090678945 0.92735285 -0.5005637 -0.12673451 -1.7468148 -0.063680254 -1.0461905 0.89432025
16265 -1.0008054 1.2961481 -0.8803793 -0.90686816 0.97640973 0.20579939 0.31896374 1.3151252 0.13757259 -1.40835 -0.29337367 -1.6453484 0.93367726 1.4373848 0.2276315 -0.05542366 0.43978906 1.9056997 0.8686131 -0.62317604 -0.059701104 -1.205141 -1.6888739 -1.4025244 0.7277182 0.6291275 -0.8409876 0.679625 -0.3380539 1.5924827 -1.3039368 -0.3070226
14813 -0.6486676 0.4756121 0.16564333 -0.64598435 0.5447723 0.8797084 0.070840165 1.1020247 -0.50153166 -0.48707157 0.1553236 -0.15895306 0.38039097 0.98962396 0.7558929 -0.24478105 0.17329687 1.2330694 -0.40756562 0.45555955 -0.34578863 -0.39071327 -0.36425555 -0.5529854 0.37050867 0.58941364 -0.09844076 -0.049657494 -0.31637654 0.7697256 -0.9343931 0.7428095
20616 -1.1133481 -0.8277825 -0.76924336 -0.19536553 0.2755325 0.37195563 -0.47271505 2.6706932 -0.99392194 0.5810359 0.16914238 -0.7363086 -0.5227912 2.44074 2.373396 -0.8779091 3.4839244 1.9826337 0.09373276 1.7636279 1.176984 -1.1761138 1.5373417 -2.053416 1.4122671 1.3624488 -1.5783983 -0.68799466 -0.690493 2.2502437 -2.3704717 0.64711124
18351 -0.23103802 1.6799127 0.40926626 -0.87978745 0.5472748 2.1245897 0.9704762 0.7333401 -0.07392284 -0.8812829 -1.0935545 -0.35857177 0.72217166 -0.32949704 -0.28621635 2.0885305 -2.726595 2.08528 -0.3844768 -0.4493208 -0.42807195 -0.51236445 -1.1862196 0.55470717 -1.0254576 0.91204137 0.4598118 0.30110765 1.7726842 0.7221508 -0.18170905 2.14113
16347 0.27287126 1.760405 -0.4196432 0.4377242 -0.075443916 -0.17077902 0.035912566 0.62585145 -0.6956937 -1.3005552 0.21390757 0.13466844 1.7413135 3.0150883 0.26487678 -1.1948829 -0.29730415 1.4098184 0.1611979 0.9624423 -0.27602234 -0.034967303 -0.13567677 -0.6267295 0.34745842 1.4189337 -0.40858337 -0.44341886 -1.2686604 0.2749749 -0.5967126 1.4252516
17819 -0.5325759 2.1269414 -0.36265624 -1.4603713 0.27008283 0.62713003 -1.0819532 0.68833506 -0.25758573 -1.1225413 1.0744288 -0.33020473 -0.61464447 0.99135655 -0.8812502 0.6853359 0.1423913 1.0646169 0.31248814 0.8646032 0.96710855 0.26967996 0.5380982 -0.30593434 -1.5539502 0.5093124 0.64426386 -0.41107228 -0.36848247 0.7745768 -0.18612723 1.3749769
262660 -1.1051761 1.3742229 0.9688947 -0.27667344 1.828809 0.7545007 -0.35168862 1.0438994 0.035052247 -1.6671001 0.4592187 -0.31186572 0.79306257 1.8426 1.4620963 0.07425993 0.6020441 1.3463217 -0.75065404 1.2161986 -0.77992535 -0.97857463 -0.4950351 -0.57042825 1.8630382 0.7466697 -0.14723714 -0.6289314 -0.8021867 0.28392783 -1.0742745 1.6012099
26554 -0.3320183 0.52942175 0.4174736 -1.1547027 0.8859981 1.5966781 0.5426258 1.0801157 -0.52449256 -0.2412852 0.096349664 -0.5539686 0.35008416 0.3824459 -0.19237284 0.5634381 -1.4796265 2.2985473 -0.58850145 0.033759996 -0.6930902 0.22333525 -0.8757127 0.10130143 -0.98222566 0.78114784 0.8115007 0.61625713 0.86262333 0.90140355 -0.3700943 1.0288806
39392 -0.6106376 -0.008456979 0.21596952 -0.5562757 1.2696161 -0.6881968 0.7715425 2.0118203 -2.3975143 -0.6697552 -0.59857523 -1.4184457 -1.1762917 1.2782959 2.2655058 -1.6201805 0.5685333 2.1064336 -0.53368896 1.0109669 0.0028454585 1.5503839 -1.4917957 -1.1083084 1.7483081 -0.41206464 -0.3258315 -0.6480891 -2.4174523 0.84791374 -2.6879716 1.0521953
5404 -0.91966206 1.3514128 -0.44815284 0.59297466 -0.4804597 0.43493357 0.53143233 0.82309055 -1.5238631 -0.88117087 0.38584474 -0.31979454 0.33040127 2.8887246 1.0859342 -1.654735 0.0072437394 1.5385649 0.041763395 -0.17278554 1.044045 0.29641372 -0.41309366 -1.0379369 0.30523422 0.9845971 -0.8762161 -0.6949 -2.3973753 0.8836409 -1.1288126 0.9022257
2854 -0.7935086 -0.7499019 -0.46395597 -1.7059855 -0.20362215 1.2558036 0.48126057 2.4009724 -0.40894753 0.027373435 0.9152874 -0.613805 -0.038444597 -0.28239688 1.62465 -0.5620223 -0.46727228 2.3086643 0.13756242 0.27106473 -1.25002 -1.2281253 -0.6985704 -0.8577126 -0.8221137 1.1670874 1.238043 -0.6298786 -0.29261476 1.2714658 -1.0860598 -0.2838737
34772 -0.32538134 1.2323992 0.19698328 -0.6785574 0.36618674 1.2851902 -0.5776477 0.1763367 -0.7176128 0.0061537614 -0.81694657 -0.60734135 0.014715086 1.2990062 0.6331447 0.33479044 0.602585 0.29648176 0.35701507 0.4959581 0.65366435 -1.3331774 0.027527256 -0.23858264 0.7404914 0.7716353 -0.29356098 0.18826677 -0.62888914 0.6325057 -1.1368741 0.5544424
25133 -1.0717753 -0.19450602 0.4052596 -0.87952054 0.96989083 0.40243754 1.1431394 3.3622077 1.1211635 -0.63651025 0.96032435 0.24029873 -0.4807762 -1.064398 1.9928508 -0.6563412 1.541903 3.1579525 -0.41217628 0.930649 0.36300686 1.3248082 0.0068740705 -0.05796633 0.17951621 -0.44189388 0.4671438 -0.2867327 0.4548304 1.9832714 -0.5250211 0.5668806
17552 -1.8433257 -1.0867778 1.6093369 -1.5251982 -0.06473374 -0.32261026 1.157136 2.1234279 0.7632098 -0.8307839 0.68666345 -0.738243 1.0854208 0.29042828 1.4798676 2.1613512 -0.96741694 1.758914 -0.81943554 0.29279697 -0.88109547 0.0877595 -0.74379945 -1.148399 1.6166466 -0.962092 1.3425409 0.21730939 0.78895 0.33672225 -1.0659955 -0.047871675
11556 -0.7661822 0.5450941 0.08828291 -0.8318132 0.8240694 0.81146383 -0.09676905 1.2200996 -0.26579943 -0.63025266 0.26385653 -0.0063197715 0.64078385 1.098458 0.99138445 -0.15326516 0.023758452 1.367254 -0.6603512 0.4411979 -0.45255682 -0.35144702 -0.35249624 -0.6697937 0.45585403 0.5594563 0.09366275 0.03101888 -0.04235274 0.87017363 -0.8141625 0.8628054
42396 -0.41655216 1.6573479 -1.3903161 -1.445659 1.9616187 0.6288272 -1.522092 0.9557303 -1.4390231 -0.91387105 0.5443368 0.073658496 2.0509706 2.44308 -0.6927298 -0.74861944 0.049390648 -0.11127834 -1.1312302 -1.321395 -2.155496 -1.5165817 -0.6662115 -1.8282593 -0.3938532 2.173765 1.1317827 0.19840914 0.09567158 -0.9329204 -0.85010034 1.1086836
33330 -0.39630008 0.38450402 0.29623166 -0.870328 1.151971 2.070169 0.55443573 1.769183 -1.0153648 -0.25073266 -0.15784167 -0.7669895 0.23214298 0.79753876 0.029318718 0.18325672 -1.6108925 2.5675933 -0.4080542 0.1645912 -1.0961012 0.45132363 -1.3499281 -0.090879075 -0.5663878 0.9489775 0.99148184 0.56883013 0.56882143 1.035982 -1.1030929 1.0412253
28283 -0.064820796 0.48151398 0.2329649 -0.71356666 0.60846233 1.2377286 -0.7860546 0.61571974 0.4936609 -1.1817399 1.0704291 -0.63806975 0.3232588 1.1943247 0.48052874 0.32000422 1.150014 1.0339181 0.16742784 0.8765851 -1.1114318 -0.9132793 0.12726893 0.23234917 0.9582342 -0.6662344 -0.9666634 -0.8162758 -1.2390207 -1.2493647 -1.4187604 0.40138698
28263 -1.62967 2.0272443 0.43933728 -1.3338823 1.1845559 2.179949 1.1885874 -1.5114001 0.5853492 0.4713338 0.3581426 0.68401474 1.8143564 -0.11961279 0.5978824 1.0791473 -0.94630265 1.4951823 -1.9188992 0.34235486 1.09121 -0.020183928 -0.23209988 -0.63273996 0.25552 1.4348371 -0.58766687 0.9561498 1.1103712 1.7189212 1.1182909 1.8670317
21565 -0.252337 0.051702693 0.079356804 -0.7298995 0.9198494 1.3547299 0.29316258 1.0727254 -0.3181355 -0.14273612 0.037196685 -0.26908594 0.29894271 0.14121354 0.041094806 0.19998075 -0.96443754 1.6581312 -0.49823737 0.07783603 -1.028958 0.41774777 -0.71046096 0.214966 -0.47756052 0.4798546 0.7881319 0.5353832 0.6549407 0.41693115 -0.37802333 0.8407017
28303 -1.2530569 0.5589908 -0.34493652 -1.4065502 1.3453858 1.989493 -0.16968957 -0.3869889 -0.14671806 0.57597494 0.53953284 -0.5632785 0.65727264 0.47726333 0.39997146 0.4802426 0.02523181 0.88330555 -0.8245974 0.73671705 0.0449907 0.035442013 -0.66847897 0.106119834 0.525002 0.85079074 -0.46661904 0.30630037 -0.035166502 0.325522 -0.320666 1.0546747
50113 -0.93556917 -0.6938846 -0.24829848 -2.236416 1.0976719 1.1220592 -0.20847306 1.8192815 -0.018547136 -0.8514055 0.3776001 0.0008299261 0.45207605 -1.4937004 1.550083 1.030833 -0.022721155 1.3396114 0.56755185 0.72930026 0.25493953 -0.7186986 1.1605905 0.39024112 0.40400082 1.4648309 0.7842737 -0.28409916 1.0862757 1.592937 -0.23035434 -0.14703219
9500 -0.34343994 1.2068473 1.0392969 -2.0296214 1.7759848 3.609708 0.4162423 0.70879275 0.45411623 -0.7058302 1.1331902 0.716637 -0.16199417 -0.8366467 -1.8233322 0.34976304 -0.25101817 2.7955492 -0.73079073 0.16245976 -1.1492468 0.7708038 -1.0685601 -0.46711853 -2.2078497 1.0582868 1.5326544 0.54343444 2.9158356 0.3460643 0.06875506 1.2977935
36423 -0.5583987 -0.021186758 -0.31786722 -0.2886447 0.37432808 0.82385147 -1.140361 2.5274537 -2.2310631 -0.0075364513 -0.6018051 -1.6604629 -0.97445434 2.1305225 1.3656203 -1.1459205 1.8885443 1.538418 1.0431192 1.8593352 -0.13877477 -0.7280657 -0.57281107 -0.5930057 1.5474833 0.61891806 -0.80318886 -1.5772792 -1.4132543 0.72198385 -3.3495417 -0.3411278
35297 -0.3272829 0.5426043 -0.11489494 -1.7052157 1.5272489 1.8969742 0.50532657 1.1039764 -0.16347797 -0.896126 0.23951505 0.31040335 0.8766583 -0.6381469 -0.89838743 1.0542289 -2.377319 2.0895994 -0.9192934 -0.81643367 -1.0578427 0.80169576 -1.2107246 0.2129495 -1.518987 1.179671 1.9753869 1.1865317 2.1196392 0.5784747 0.606893 1.040195
62943 -0.81663996 0.6020065 0.47783473 -1.0176618 0.8320319 1.23821 0.5047311 0.45687592 -0.23069432 0.110125996 0.3484127 -0.074214414 0.7951658 0.34103703 0.23231244 0.25102526 -0.49209842 1.5787481 -0.96849906 -0.043208495 -0.012065901 -0.14053157 -0.09646468 -0.3747305 -0.7334166 0.7805558 0.16502666 0.95304346 0.6443905 0.70977366 0.1859932 1.2309246
766 0.16497964 0.8858433 0.9998357 -0.797979 1.8169262 0.31470674 -0.8361346 -0.33660102 -0.88353425 -0.52159035 -1.4722056 -0.028551383 0.66329795 3.296071 0.15663536 0.7978651 0.86757845 0.99694526 -1.5134137 0.11431645 -0.5880326 -2.8488598 -0.70841646 0.26042107 2.4791226 1.0398328 0.07361399 0.7241973 1.4301604 2.225218 -1.9929345 1.8142092
44889 0.25047252 0.69399786 0.55951494 -0.6267115 0.39296052 1.553516 -0.508772 1.5809577 -2.0307617 -1.63752 -0.49999326 -0.8009761 0.5513087 0.75708723 -0.2649964 -1.5446783 0.7088073 0.8945013 0.6010096 1.093312 -0.6075099 -0.71495813 0.19948608 -0.2753571 -0.6678526 0.72903854 -0.25064138 -1.4528469 -0.7729536 0.28447092 -1.0158299 0.21444708
26794 -0.56743324 0.555033 0.24749571 -1.1671591 1.1566263 1.8033541 0.37818983 1.8084754 -0.9717346 -0.561021 -0.0043812026 -0.626938 0.3937906 1.0775023 0.3335665 0.12769817 -1.0507331 2.5447018 -0.53325206 0.3306634 -0.9551472 0.06409112 -1.1460199 -0.3198073 -0.34620106 1.1322457 0.58523077 0.3934359 0.47912553 1.1653973 -1.2581148 1.1220444
42313 -1.2313932 1.316822 0.204942 -0.4311943 0.45833102 2.886957 -0.86404306 1.13905 -0.70762455 -0.5441749 1.5798731 -0.23991497 -0.32669693 2.030392 0.8069832 -1.3816835 1.0037953 2.5079288 -0.03698414 2.1624935 1.2052802 0.080910474 -0.9925466 -0.095052905 0.70612764 0.0037493298 0.5126932 -0.4778196 -0.46717894 1.7935525 -1.7857465 0.11293038
53169 -0.73515016 0.5729596 0.080648735 -1.1501867 0.66697216 1.1598729 0.20912005 1.2628345 -0.7852966 -0.54748297 0.108652584 -0.21021767 0.31280035 0.81604755 0.6432267 -0.08769175 0.045192342 1.6325736 -0.42577505 0.31923756 -0.08329052 -0.34926125 -0.5035932 -0.5864362 -0.03415595 1.1676943 0.28016526 0.14753036 0.046468716 1.2384331 -0.99192286 0.8633781
60299 -1.016133 0.98991555 -0.89676183 -1.307281 -1.1705717 0.19901547 1.0506073 2.0236502 1.3236171 0.014063244 2.452471 0.017346105 1.6710404 0.6693423 0.25335142 -0.4365307 -3.1417656 1.9822991 -0.78580815 -1.3140268 -1.6046959 -0.9058934 -0.7614331 -2.2307491 -1.5134853 1.1504579 2.7752576 0.78718126 0.34659195 1.5086802 0.7820642 -0.39837685
29056 -0.9460597 0.79575914 0.16593976 0.6749924 -0.7932344 0.62305635 0.43860292 0.96587974 -1.5395771 -0.65006757 -0.38001084 -0.6394705 0.05621256 2.7299352 0.645239 -0.16169848 0.11950244 1.7823554 -0.02494133 0.22822283 0.7215613 -0.5809112 -0.4119929 0.44348365 0.50281835 1.4480157 -1.0806706 -0.22977945 -1.498412 1.6436442 -1.9112779 1.1067989
30689 -0.5055345 0.40607128 -0.06809851 -0.6760523 0.611397 0.65475804 -0.2139183 1.142705 -0.42085668 -0.49863014 0.089948885 -0.22081767 0.366093 1.0624304 0.7741521 -0.1663121 0.06801579 1.0744182 -0.31784263 0.53410524 -0.50766474 -0.23672786 -0.4018582 -0.58398753 0.46740684 0.5152813 0.012182504 -0.15019144 -0.13121183 0.6360135 -0.99429864 0.61764485
34362 -0.43400398 2.0022066 0.4097972 -0.008441557 1.0678045 1.0583247 -0.058523748 0.0618674 0.4180055 -0.83590835 0.034226242 -0.13253988 0.64642215 2.7526813 -0.8158281 0.67601824 -0.30178577 1.4501826 -2.058333 -1.5508125 0.0530128 -0.78643304 -1.872949 -1.5054039 -0.019857405 0.7719017 0.22586825 -0.11009647 1.3059705 1.9428976 -1.8012207 1.8692034
4788 -0.37164655 0.381032 0.27989492 -0.8994554 1.0093988 1.7508858 0.3499801 1.5234754 -0.9343739 -0.27599326 -0.08361147 -0.7495881 0.18831164 0.82812995 -0.016576037 0.29393223 -1.2715945 2.4344676 -0.4278783 0.23064674 -0.89228547 0.27953136 -1.2147214 0.0015533934 -0.5120577 0.93974936 0.5841259 0.48472428 0.5487618 0.9918275 -1.12074 0.9803188
47394 -0.48636055 1.3856156 0.6093411 -0.7663121 -0.16137639 2.2570038 -0.57673514 0.53159755 -0.5836552 0.117587455 0.5877294 -0.3281691 -0.61343926 1.6068144 0.06711981 -0.017452393 -0.2560257 1.6978346 0.7497768 2.491789 1.0937971 -0.52093035 -0.35097244 0.05169804 1.0575173 -0.11387265 0.57306314 0.111024246 -0.9111065 1.4555231 -1.0949931 0.046611957
8057 -0.6362822 1.4538058 0.33008376 -1.0099763 1.339567 1.2462541 -0.01251027 -0.15841366 -0.5682162 0.09785192 0.3693254 -0.2000353 1.0382539 1.6990981 -0.14218616 0.9480596 -0.8500265 1.6805972 -1.3825119 -0.4044453 0.09768771 -0.5789502 -0.6264782 -0.8418328 -0.97945476 1.0874786 -0.2086709 1.2170297 0.91668385 1.2412193 -0.321474 1.3993683
8501 -1.0748236 0.9176085 -0.6971565 0.71995604 -0.06406678 0.3160094 -0.33020264 1.6103572 -1.845271 -0.06854079 0.5639057 -0.53926325 1.3290346 2.7757072 2.1366546 0.018978825 0.99489933 0.96383554 -0.06859804 0.4082112 -0.30945176 -0.12117689 -0.474745 -2.1987076 0.24591282 1.5917144 -0.81870955 -0.54858416 -0.4498889 0.17307323 -1.5612493 -0.030569768
13536 -0.3541849 0.44241726 0.45683384 -1.0778251 0.7477211 1.5286853 0.6108568 1.1471748 -0.31426126 -0.5473819 0.068653956 -0.2786872 0.44319358 0.32219985 -0.15089281 0.72418195 -1.330825 2.3669362 -0.6155056 -0.052696172 -0.77906257 0.24484575 -0.77192533 -0.14566928 -1.0784683 0.8891644 0.6617175 0.44911307 1.1516857 0.8759962 -0.28459662 1.1829296
41034 -0.029034827 -0.48477638 -0.75381917 -2.182305 0.86596406 0.033825383 0.35887352 3.2311547 -0.07666169 -1.8670717 0.9307633 -0.009522759 0.17476456 -1.5578054 1.1615071 -0.097073644 -1.4121197 1.8669728 0.47997153 0.8371776 -1.1831105 0.48708826 0.5248966 -0.75699085 0.06765786 1.6026447 1.2205133 -0.28341988 0.76501524 0.49737176 0.339302 0.008968525
42560 -1.2018759 0.7661905 0.85451293 -1.1831515 1.625425 -0.1470071 0.51531655 -0.084645055 -0.50059587 -0.29023886 -0.5898563 -0.36437124 0.30892813 0.9479943 0.84538573 2.4967752 -0.020946832 1.9795034 -0.9942813 -0.8408567 -0.15365312 -0.862052 -1.6259536 -0.6881917 0.7751903 0.9730337 -0.76458687 1.7452774 1.0920091 2.143397 -1.0100824 1.8467685
262741 -0.987929 1.4217795 0.5596498 -0.79607296 1.574122 1.1247693 -0.48077065 0.5961802 0.39781207 -1.4000391 0.1876668 -0.06035749 1.3269796 1.3968145 1.3884023 0.115082726 -0.039286334 0.819153 -1.0280087 1.3512478 -0.31926152 -0.9732435 0.021177812 -0.2629725 2.065179 0.9511743 -1.0586449 -0.83025473 -0.62267107 0.8402077 -0.9128373 1.9842273
27975 -0.88538235 1.0531548 -0.54353565 0.40900886 -0.4119445 0.9398899 -0.5330863 2.0646026 -0.1993763 -0.09176078 0.29050493 0.17556764 -0.36405876 0.8478853 0.43359494 -0.7165437 1.4121866 0.8500472 -0.17037344 0.78239214 0.15175386 -0.4567304 0.005691248 -0.35297522 1.2098281 0.14760116 -0.2801945 -0.9337598 -0.03085925 0.10934495 -0.6289925 0.3913101
41491 -0.9435771 0.9700941 -0.18628438 0.25392893 0.006081775 0.9684014 0.27865404 1.6745327 -1.5931011 -0.18142273 0.13997576 -0.8636595 0.059325982 2.80004 0.8263959 -0.7301082 0.40956753 1.9001162 -0.04997333 0.65265596 0.16418645 -0.6947694 -0.86663854 -0.5963284 1.0389646 1.2577003 -0.72665024 -0.35057366 -1.756753 1.6251534 -2.2475102 1.1576015
34224 -0.39695707 0.73560643 0.1905616 -1.618799 0.8424049 0.69879556 0.1616904 0.5472384 -1.0770183 -0.104541674 -1.0231616 -1.6234089 1.6285474 2.170068 1.9933177 1.027043 -0.9421539 0.85535055 0.4099324 -0.05099188 0.33564 -0.21419767 -0.8536085 -0.7373679 0.8656849 1.8173307 -1.9914372 -0.57169217 -0.5651781 0.5176935 -1.7814136 0.45942906
12695 -0.48498857 0.10028006 0.17811908 -1.6480772 1.1614914 0.9939088 -0.33484027 1.7014868 -0.5711376 -0.5708822 0.38458276 -0.844798 0.047595315 -0.33103207 0.30510464 0.6256331 -0.6193511 1.7253175 0.2625889 0.7409067 0.40303808 -0.13589129 0.29954275 0.41168967 0.016094618 1.3415202 0.6999226 -0.044915482 1.1545696 1.5759649 -0.3801424 -0.34556797
18895 -0.44419724 0.057459418 -0.99189293 -0.4875709 0.27355647 0.34036568 -1.2527937 2.5648263 -1.3442658 -0.61497104 -0.37254748 -1.0553293 -0.6268753 1.9119129 1.2766775 -0.6894759 0.9732926 1.1737905 0.59299755 1.3428237 -0.46644846 -0.25359252 -0.63127524 -0.412852 1.7053943 0.6638085 0.09441624 -1.4072808 -0.6188854 0.81766444 -2.6380887 -0.13064156
15713 -2.1354256 0.32773462 0.5655195 -1.084412 0.34667596 1.6916094 0.6283414 2.393007 0.23966908 -0.7212237 0.6049594 0.420054 0.26645038 0.3388569 1.339509 0.00044906893 -0.17611074 2.1885188 -1.5750707 0.969746 -0.21087214 0.10041024 -0.88033456 -0.34628162 0.076708816 0.32348976 0.41601267 0.7149851 -0.4948918 0.67926973 0.07795659 1.8701733
5416 -0.7207594 1.103742 0.46692342 -1.4027058 1.5796713 1.9395889 0.16182946 2.092989 -1.0648491 -1.0588908 -0.037358124 -0.3586909 0.68985265 1.7186847 0.41972697 0.2672504 -1.1318208 2.6765752 -0.85340035 0.4561582 -1.3128508 -0.16518626 -1.0659176 -0.697691 -0.0024234175 1.3068101 0.3155614 0.3803034 0.3070473 1.4930164 -1.6383405 1.8689368
